{"learner":{"attributes":{"scikit_learn":"{\"_estimator_type\": \"classifier\"}"},"feature_names":["UTC","TemperatureC","Humidity%","TVOCppb","eCO2ppm","Raw H2","Raw Ethanol","PressurehPa","PM1.0","PM2.5","NC0.5","NC1.0","NC2.5","CNT"],"feature_types":["int","float","float","float","float","float","int","float","float","float","float","float","float","int"],"gradient_booster":{"model":{"gbtree_model_param":{"num_parallel_tree":"1","num_trees":"100"},"iteration_indptr":[0,1,2,3,4,5,6,7,8,9,10,11,12,13,14,15,16,17,18,19,20,21,22,23,24,25,26,27,28,29,30,31,32,33,34,35,36,37,38,39,40,41,42,43,44,45,46,47,48,49,50,51,52,53,54,55,56,57,58,59,60,61,62,63,64,65,66,67,68,69,70,71,72,73,74,75,76,77,78,79,80,81,82,83,84,85,86,87,88,89,90,91,92,93,94,95,96,97,98,99,100],"tree_info":[0,0,0,0,0,0,0,0,0,0,0,0,0,0,0,0,0,0,0,0,0,0,0,0,0,0,0,0,0,0,0,0,0,0,0,0,0,0,0,0,0,0,0,0,0,0,0,0,0,0,0,0,0,0,0,0,0,0,0,0,0,0,0,0,0,0,0,0,0,0,0,0,0,0,0,0,0,0,0,0,0,0,0,0,0,0,0,0,0,0,0,0,0,0,0,0,0,0,0,0],"trees":[{"base_weights":[5.90659E-2,-2.1237395E0,1.413942E0,-2.7964196E0,-4.131446E-1,-9.32066E-1,4.2687595E-1,1.3113474E0,-3.0448086E0,-2.9221246E0,1.1816795E0,-1.9965242E0,4.242806E-1,-3.1490881E0,6.369745E-1,9.9189585E-1,-3.1648574E0,-9.8070675E-1,4.26294E-1,-7.766488E-1,7.140346E-2,-1.0077723E0,-2.380737E0,-2.8578126E0,1.1893697E0,-1.0864944E0,4.0832853E-1,-1.0061263E0,-2.0569751E0,-1.0067617E0,4.2330465E-1,-9.0350705E-1,-2.2204937E-1,4.2017075E-1,-7.5191444E-1,-6.823722E-1,2.5356257E-1,-9.8691064E-1,3.3823562E-1],"categories":[],"categories_nodes":[],"categories_segments":[],"categories_sizes":[],"default_left":[0,0,0,0,0,0,0,0,0,0,0,0,0,0,0,0,0,0,0,0,0,0,0,0,0,0,0,0,0,0,0,0,0,0,0,0,0,0,0],"id":0,"left_children":[1,3,5,7,9,-1,-1,11,13,15,17,19,-1,21,23,25,27,-1,-1,-1,-1,-1,29,31,33,35,-1,-1,37,-1,-1,-1,-1,-1,-1,-1,-1,-1,-1],"loss_changes":[3.0964188E4,4.6128984E3,2.666172E2,2.940373E3,4.5368267E3,0E0,0E0,5.892865E1,1.0440391E3,4.217141E2,7.4312836E2,7.7465553E0,0E0,4.1820898E2,1.4931802E2,2.1804712E1,7.996875E1,0E0,0E0,0E0,0E0,0E0,2.113472E3,1.2283783E0,5.5006874E1,1.236875E1,0E0,0E0,2.5121567E2,0E0,0E0,0E0,0E0,0E0,0E0,0E0,0E0,0E0,0E0],"parents":[2147483647,0,0,1,1,2,2,3,3,4,4,7,7,8,8,9,9,10,10,11,11,13,13,14,14,15,15,16,16,22,22,23,23,24,24,25,25,28,28],"right_children":[2,4,6,8,10,-1,-1,12,14,16,18,20,-1,22,24,26,28,-1,-1,-1,-1,-1,30,32,34,36,-1,-1,38,-1,-1,-1,-1,-1,-1,-1,-1,-1,-1],"split_conditions":[5.71E3,1.3203E4,1.833E1,9.36668E2,9.39619E2,-9.32066E-1,4.2687595E-1,5.2E1,5.745E1,1.184E3,1.3E0,1.2876E4,4.242806E-1,3.27E3,1.3088E4,2.355E1,9.37511E2,-9.8070675E-1,4.26294E-1,-7.766488E-1,7.140346E-2,-1.0077723E0,9.3749E2,1.54E0,2.0049E4,2.031E4,4.0832853E-1,-1.0061263E0,1.52E0,-1.0067617E0,4.2330465E-1,-9.0350705E-1,-2.2204937E-1,4.2017075E-1,-7.5191444E-1,-6.823722E-1,2.5356257E-1,-9.8691064E-1,3.3823562E-1],"split_indices":[13,5,2,7,7,0,0,13,2,13,8,5,0,13,5,1,7,0,0,0,0,0,7,8,6,6,0,0,8,0,0,0,0,0,0,0,0,0,0],"split_type":[0,0,0,0,0,0,0,0,0,0,0,0,0,0,0,0,0,0,0,0,0,0,0,0,0,0,0,0,0,0,0,0,0,0,0,0,0,0,0],"sum_hessian":[1.0467945E4,4.0088406E3,6.4591055E3,2.8768884E3,1.1319521E3,1.2117613E1,6.446988E3,1.6379669E2,2.7130916E3,4.3957684E2,6.923753E2,4.3874116E0,1.5940929E2,2.6385056E3,7.458599E1,2.5488771E1,4.1408807E2,3.4681442E1,6.5769385E2,3.3427896E0,1.0446217E0,2.0691868E3,5.6931885E2,9.61052E0,6.497547E1,3.551714E0,2.1937057E1,3.5203754E2,6.2050533E1,4.52948E2,1.16370865E2,8.565899E0,1.0446217E0,6.2050533E1,2.924941E0,2.0892434E0,1.4624705E0,4.4709812E1,1.7340721E1],"tree_param":{"num_deleted":"0","num_feature":"14","num_nodes":"39","size_leaf_vector":"1"}},{"base_weights":[1.1771494E-1,-1.2588547E0,1.267026E0,-1.5915759E0,-1.9588687E-1,-5.417448E-1,3.8276228E-1,1.1622899E0,-1.7081276E0,-1.5877286E0,1.1853817E0,-1.3185494E0,3.801336E-1,-1.7560211E0,5.4976696E-1,8.3918345E-1,-1.6925997E0,-5.298489E-1,3.8213387E-1,-5.0070065E-1,6.1549123E-2,-1.8601301E0,-1.3531038E0,-1.7231699E0,1.043265E0,-7.762157E-1,3.635822E-1,-1.8351953E0,-6.057674E-1,-5.5815923E-1,-1.759558E-1,-5.5803406E-1,3.7948155E-1,-5.405657E-1,-1.5404072E-1,3.760675E-1,-4.9299276E-1,-4.691767E-1,2.2544384E-1,-5.5245245E-1,2.91262E-2,-5.4922247E-1,3.7029442E-1],"categories":[],"categories_nodes":[],"categories_segments":[],"categories_sizes":[],"default_left":[0,0,0,0,0,0,0,0,0,0,0,0,0,0,0,0,0,0,0,0,0,0,0,0,0,0,0,0,0,0,0,0,0,0,0,0,0,0,0,0,0,0,0],"id":1,"left_children":[1,3,5,7,9,-1,-1,11,13,15,17,19,-1,21,23,25,27,-1,-1,-1,-1,29,31,33,35,37,-1,39,41,-1,-1,-1,-1,-1,-1,-1,-1,-1,-1,-1,-1,-1,-1],"loss_changes":[1.5234164E4,1.5492622E3,1.449834E2,1.0729785E3,2.0121106E3,0E0,0E0,3.7058563E1,3.4718945E2,1.3408496E2,1.393269E2,3.5499887E0,0E0,1.2900586E2,7.724663E1,1.4344387E1,7.637537E1,0E0,0E0,0E0,0E0,1.7871094E-1,8.617875E2,2.53273E-1,3.3634647E1,6.931011E0,0E0,5.564331E0,1.3634007E2,0E0,0E0,0E0,0E0,0E0,0E0,0E0,0E0,0E0,0E0,0E0,0E0,0E0,0E0],"parents":[2147483647,0,0,1,1,2,2,3,3,4,4,7,7,8,8,9,9,10,10,11,11,13,13,14,14,15,15,16,16,21,21,22,22,23,23,24,24,25,25,27,27,28,28],"right_children":[2,4,6,8,10,-1,-1,12,14,16,18,20,-1,22,24,26,28,-1,-1,-1,-1,30,32,34,36,38,-1,40,42,-1,-1,-1,-1,-1,-1,-1,-1,-1,-1,-1,-1,-1,-1],"split_conditions":[5.71E3,1.3208E4,1.833E1,9.36668E2,9.39628E2,-5.417448E-1,3.8276228E-1,5.2E1,5.745E1,1.184E3,1.3E0,1.2876E4,3.801336E-1,3.27E3,1.3088E4,2.355E1,9.39608E2,-5.298489E-1,3.8213387E-1,-5.0070065E-1,6.1549123E-2,4.86E2,9.3749E2,1.676E0,2.0054E4,2.031E4,3.635822E-1,7.73E0,1.26E0,-5.5815923E-1,-1.759558E-1,-5.5803406E-1,3.7948155E-1,-5.405657E-1,-1.5404072E-1,3.760675E-1,-4.9299276E-1,-4.691767E-1,2.2544384E-1,-5.5245245E-1,2.91262E-2,-5.4922247E-1,3.7029442E-1],"split_indices":[13,5,2,7,7,0,0,13,2,13,8,5,0,13,5,1,7,0,0,0,0,4,7,11,6,6,0,8,8,0,0,0,0,0,0,0,0,0,0,0,0,0,0],"split_type":[0,0,0,0,0,0,0,0,0,0,0,0,0,0,0,0,0,0,0,0,0,0,0,0,0,0,0,0,0,0,0,0,0,0,0,0,0,0,0,0,0,0,0],"sum_hessian":[9.627029E3,4.380389E3,5.2466396E3,3.3357605E3,1.0446288E3,1.4481216E1,5.232158E3,1.3508247E2,3.200678E3,5.202485E2,5.243803E2,5.006803E0,1.3007567E2,3.1344146E3,6.62636E1,2.1259613E1,4.9898886E2,1.4696448E1,5.0968384E2,3.9930522E0,1.0137508E0,2.487944E3,6.4647034E2,1.1376118E1,5.488749E1,3.7830098E0,1.7476603E1,4.4050476E2,5.848412E1,2.486701E3,1.2432053E0,5.418293E2,1.04641106E2,1.0221472E1,1.154646E0,5.13977E1,3.489788E0,2.4803724E0,1.3026373E0,4.3911713E2,1.3876328E0,3.511352E1,2.3370598E1],"tree_param":{"num_deleted":"0","num_feature":"14","num_nodes":"43","size_leaf_vector":"1"}},{"base_weights":[1.20040685E-1,-1.0162811E0,3.5640466E-1,-1.285475E0,-1.4420983E-1,1.0700334E0,-1.3750302E0,-1.2792116E0,1.1027467E0,-1.0319734E0,3.5334453E-1,-1.4117492E0,4.8439217E-1,7.4704176E-1,-1.3583298E0,-4.2459452E-1,3.557093E-1,-3.8925976E-1,-6.142081E-3,-4.472979E-1,-1.0991588E0,-1.3555039E0,9.491744E-1,-6.137116E-1,3.3468014E-1,-4.4863462E-1,-6.29473E-1,-4.4734344E-1,3.526032E-1,-1.4578891E-1,-4.4110066E-1,3.486685E-1,-3.8888824E-1,-3.721134E-1,2.0266768E-1,-4.4357017E-1,3.1828406E-1],"categories":[],"categories_nodes":[],"categories_segments":[],"categories_sizes":[],"default_left":[0,0,0,0,0,0,0,0,0,0,0,0,0,0,0,0,0,0,0,0,0,0,0,0,0,0,0,0,0,0,0,0,0,0,0,0,0],"id":2,"left_children":[1,3,-1,5,7,9,11,13,15,17,-1,19,21,23,25,-1,-1,-1,-1,-1,27,29,31,33,-1,-1,35,-1,-1,-1,-1,-1,-1,-1,-1,-1,-1],"loss_changes":[9.645579E3,9.0383936E2,0E0,6.2217676E2,1.2885568E3,2.5759735E1,1.9425537E2,7.741394E1,9.230737E1,1.5359635E0,0E0,6.723584E1,4.887339E1,9.9898E0,4.4931885E1,0E0,0E0,0E0,0E0,0E0,5.064917E2,4.4715118E-1,2.3041088E1,4.5540137E0,0E0,0E0,1.0836604E2,0E0,0E0,0E0,0E0,0E0,0E0,0E0,0E0,0E0,0E0],"parents":[2147483647,0,0,1,1,3,3,4,4,5,5,6,6,7,7,8,8,9,9,11,11,12,12,13,13,14,14,20,20,21,21,22,22,23,23,26,26],"right_children":[2,4,-1,6,8,10,12,14,16,18,-1,20,22,24,26,-1,-1,-1,-1,-1,28,30,32,34,-1,-1,36,-1,-1,-1,-1,-1,-1,-1,-1,-1,-1],"split_conditions":[5.805E3,1.3208E4,3.5640466E-1,9.36668E2,9.39628E2,5.2E1,5.745E1,1.184E3,1.3E0,1.2858E4,3.5334453E-1,3.27E3,1.3088E4,2.355E1,9.37511E2,-4.2459452E-1,3.557093E-1,-3.8925976E-1,-6.142081E-3,-4.472979E-1,9.3749E2,1.2925E4,2.0054E4,2.031E4,3.3468014E-1,-4.4863462E-1,1.52E0,-4.4734344E-1,3.526032E-1,-1.4578891E-1,-4.4110066E-1,3.486685E-1,-3.8888824E-1,-3.721134E-1,2.0266768E-1,-4.4357017E-1,3.1828406E-1],"split_indices":[13,5,0,7,7,13,2,13,8,5,0,13,5,1,7,0,0,0,0,0,7,5,6,6,0,0,8,0,0,0,0,0,0,0,0,0,0],"split_type":[0,0,0,0,0,0,0,0,0,0,0,0,0,0,0,0,0,0,0,0,0,0,0,0,0,0,0,0,0,0,0,0,0,0,0,0,0],"sum_hessian":[7.946153E3,3.8499094E3,4.096243E3,2.941457E3,9.0845245E2,1.0733553E2,2.8341216E3,4.7556183E2,4.3289062E2,4.8170276E0,1.0251851E2,2.7794744E3,5.464723E1,1.7553976E1,4.5800787E2,1.3293407E1,4.195972E2,3.5913692E0,1.2256583E0,2.2143525E3,5.6512177E2,1.0634171E1,4.401306E1,3.5994182E0,1.3954558E1,3.846015E2,7.340637E1,4.8234006E2,8.2781685E1,1.8508579E0,8.783313E0,4.0639526E1,3.3735335E0,2.4476361E0,1.151782E0,4.894615E1,2.446022E1],"tree_param":{"num_deleted":"0","num_feature":"14","num_nodes":"37","size_leaf_vector":"1"}},{"base_weights":[1.1828946E-1,-9.012261E-1,3.3944747E-1,-1.1352432E0,-1.240317E-1,1.005342E0,-1.2125797E0,-1.124486E0,1.0463967E0,-8.5975325E-1,3.3565602E-1,-1.2444377E0,4.3437538E-1,6.7930436E-1,-1.1940713E0,-3.6937606E-1,3.3858335E-1,-3.3061936E-1,-5.1206104E-3,-1.3123401E0,-9.7376466E-1,-1.1444983E0,8.823221E-1,-5.082578E-1,3.1344068E-1,-3.9442158E-1,-5.511281E-1,-3.9383975E-1,-8.379839E-2,-3.938027E-1,3.3474493E-1,-3.712514E-1,-7.249219E-2,3.2994968E-1,-3.294507E-1,-3.143829E-1,1.8358809E-1,-3.88393E-1,2.8532416E-1],"categories":[],"categories_nodes":[],"categories_segments":[],"categories_sizes":[],"default_left":[0,0,0,0,0,0,0,0,0,0,0,0,0,0,0,0,0,0,0,0,0,0,0,0,0,0,0,0,0,0,0,0,0,0,0,0,0,0,0],"id":3,"left_children":[1,3,-1,5,7,9,11,13,15,17,-1,19,21,23,25,-1,-1,-1,-1,27,29,31,33,35,-1,-1,37,-1,-1,-1,-1,-1,-1,-1,-1,-1,-1,-1,-1],"loss_changes":[6.513246E3,5.7148584E2,0E0,4.0108887E2,8.541842E2,1.8908882E1,1.2288159E2,5.0169006E1,6.4351166E1,1.0896988E0,0E0,4.07688E1,3.282805E1,7.147641E0,2.8678284E1,0E0,0E0,0E0,0E0,4.987793E-1,3.2912857E2,5.7244205E-1,1.6547916E1,3.216887E0,0E0,0E0,7.004512E1,0E0,0E0,0E0,0E0,0E0,0E0,0E0,0E0,0E0,0E0,0E0,0E0],"parents":[2147483647,0,0,1,1,3,3,4,4,5,5,6,6,7,7,8,8,9,9,11,11,12,12,13,13,14,14,19,19,20,20,21,21,22,22,23,23,26,26],"right_children":[2,4,-1,6,8,10,12,14,16,18,-1,20,22,24,26,-1,-1,-1,-1,28,30,32,34,36,-1,-1,38,-1,-1,-1,-1,-1,-1,-1,-1,-1,-1,-1,-1],"split_conditions":[5.805E3,1.3208E4,3.3944747E-1,9.36668E2,9.39628E2,5.2E1,5.745E1,1.184E3,1.3E0,1.2858E4,3.3565602E-1,3.27E3,1.3088E4,2.355E1,9.37511E2,-3.6937606E-1,3.3858335E-1,-3.3061936E-1,-5.1206104E-3,4.86E2,9.3749E2,1.676E0,2.0054E4,2.031E4,3.1344068E-1,-3.9442158E-1,1.52E0,-3.9383975E-1,-8.379839E-2,-3.938027E-1,3.3474493E-1,-3.712514E-1,-7.249219E-2,3.2994968E-1,-3.294507E-1,-3.143829E-1,1.8358809E-1,-3.88393E-1,2.8532416E-1],"split_indices":[13,5,0,7,7,13,2,13,8,5,0,13,5,1,7,0,0,0,0,4,7,11,6,6,0,0,8,0,0,0,0,0,0,0,0,0,0,0,0],"split_type":[0,0,0,0,0,0,0,0,0,0,0,0,0,0,0,0,0,0,0,0,0,0,0,0,0,0,0,0,0,0,0,0,0,0,0,0,0,0,0],"sum_hessian":[6.303339E3,3.1419358E3,3.1614033E3,2.4144673E3,7.2746844E2,8.377154E1,2.3306958E3,3.922348E2,3.3523367E2,4.428764E0,7.934277E1,2.286707E3,4.3988583E1,1.4243843E1,3.7799094E2,1.1192159E1,3.2404153E2,3.2006307E0,1.2281332E0,1.8250238E3,4.6168326E2,9.37823E0,3.461035E1,3.2602308E0,1.0983612E1,3.1738034E2,6.0610615E1,1.8239426E3,1.0812131E0,3.9757245E2,6.411081E1,8.166337E0,1.211893E0,3.1586039E1,3.0243125E0,2.243772E0,1.0164587E0,4.063605E1,1.9974562E1],"tree_param":{"num_deleted":"0","num_feature":"14","num_nodes":"39","size_leaf_vector":"1"}},{"base_weights":[1.1614642E-1,-8.331815E-1,3.2803342E-1,-1.0472807E0,-1.1256866E-1,9.5598584E-1,-1.1178962E0,-1.0320555E0,1.0074186E0,-7.36601E-1,3.2319054E-1,-1.1471922E0,3.9431685E-1,6.246483E-1,-1.0970677E0,-3.340929E-1,3.26924E-1,-2.907846E-1,-4.269228E-3,-1.208803E0,-8.9981866E-1,-3.5358477E-1,7.9163635E-1,-4.3111163E-1,2.9618648E-1,-3.6305317E-1,-5.002684E-1,-3.6280107E-1,-7.2134495E-2,-3.627871E-1,3.220381E-1,3.2011408E-1,-2.944882E-1,-2.5335705E-1,6.687862E-2,-3.2922307E-1,3.1965473E-1],"categories":[],"categories_nodes":[],"categories_segments":[],"categories_sizes":[],"default_left":[0,0,0,0,0,0,0,0,0,0,0,0,0,0,0,0,0,0,0,0,0,0,0,0,0,0,0,0,0,0,0,0,0,0,0,0,0],"id":4,"left_children":[1,3,-1,5,7,9,11,13,15,17,-1,19,21,23,25,-1,-1,-1,-1,27,29,-1,31,33,-1,-1,35,-1,-1,-1,-1,-1,-1,-1,-1,-1,-1],"loss_changes":[4.54043E3,3.8289417E2,0E0,2.7179492E2,5.877804E2,1.42848625E1,8.237012E1,3.4437927E1,4.615741E1,8.246336E-1,0E0,2.6562256E1,2.335994E1,5.2000475E0,1.9774384E1,0E0,0E0,0E0,0E0,4.5874023E-1,2.2459631E2,0E0,1.5331001E1,1.2385468E0,0E0,0E0,4.7738968E1,0E0,0E0,0E0,0E0,0E0,0E0,0E0,0E0,0E0,0E0],"parents":[2147483647,0,0,1,1,3,3,4,4,5,5,6,6,7,7,8,8,9,9,11,11,12,12,13,13,14,14,19,19,20,20,22,22,23,23,26,26],"right_children":[2,4,-1,6,8,10,12,14,16,18,-1,20,22,24,26,-1,-1,-1,-1,28,30,-1,32,34,-1,-1,36,-1,-1,-1,-1,-1,-1,-1,-1,-1,-1],"split_conditions":[5.805E3,1.3208E4,3.2803342E-1,9.36668E2,9.39628E2,5.2E1,5.745E1,1.184E3,1.3E0,1.2858E4,3.2319054E-1,3.27E3,9.37284E2,2.355E1,9.37511E2,-3.340929E-1,3.26924E-1,-2.907846E-1,-4.269228E-3,4.86E2,9.3749E2,-3.5358477E-1,9.39714E2,1.3533E4,2.9618648E-1,-3.6305317E-1,1.83E0,-3.6280107E-1,-7.2134495E-2,-3.627871E-1,3.220381E-1,3.2011408E-1,-2.944882E-1,-2.5335705E-1,6.687862E-2,-3.2922307E-1,3.1965473E-1],"split_indices":[13,5,0,7,7,13,2,13,8,5,0,13,7,1,7,0,0,0,0,4,7,0,7,5,0,0,8,0,0,0,0,0,0,0,0,0,0],"split_type":[0,0,0,0,0,0,0,0,0,0,0,0,0,0,0,0,0,0,0,0,0,0,0,0,0,0,0,0,0,0,0,0,0,0,0,0,0],"sum_hessian":[4.8919014E3,2.4815354E3,2.4103662E3,1.9127812E3,5.687542E2,6.470307E1,1.8480781E3,3.1237732E2,2.563769E2,3.9882107E0,6.071486E1,1.8131926E3,3.4885525E1,1.1470372E1,3.0090695E2,9.11127E0,2.4726564E2,2.7580228E0,1.230188E0,1.448534E3,3.6465857E2,6.6384416E0,2.8247084E1,2.8843372E0,8.586035E0,2.5209956E2,4.880738E1,1.4474872E3,1.0468526E0,3.1555664E2,4.9101948E1,2.4794447E1,3.4526367E0,1.5888205E0,1.2955168E0,3.554916E1,1.3258223E1],"tree_param":{"num_deleted":"0","num_feature":"14","num_nodes":"37","size_leaf_vector":"1"}},{"base_weights":[1.1432017E-1,-7.8828484E-1,3.20116E-1,-9.90781E-1,-1.041607E-1,9.14684E-1,-1.0573888E0,-9.633178E-1,9.789888E-1,-6.403614E-1,3.1383628E-1,-1.0851761E0,3.6173394E-1,5.622788E-1,-1.0259848E0,-3.083782E-1,3.1866705E-1,-2.6058334E-1,-3.559558E-3,-1.1429077E0,-8.519753E-1,-3.1875852E-1,7.483584E-1,-3.7692696E-1,2.8089252E-1,-3.4311152E-1,-4.3679678E-1,-3.4307054E-1,-6.2174626E-2,-3.430829E-1,3.123604E-1,3.0837858E-1,-2.6664007E-1,-2.2602497E-1,5.641172E-2,-3.348906E-1,2.4108163E-1],"categories":[],"categories_nodes":[],"categories_segments":[],"categories_sizes":[],"default_left":[0,0,0,0,0,0,0,0,0,0,0,0,0,0,0,0,0,0,0,0,0,0,0,0,0,0,0,0,0,0,0,0,0,0,0,0,0],"id":5,"left_children":[1,3,-1,5,7,9,11,13,15,17,-1,19,21,23,25,-1,-1,-1,-1,27,29,-1,31,33,-1,-1,35,-1,-1,-1,-1,-1,-1,-1,-1,-1,-1],"loss_changes":[3.2238176E3,2.6659363E2,0E0,1.8948608E2,4.1115536E2,1.1033443E1,5.700537E1,2.4126617E1,3.3746094E1,6.455648E-1,0E0,1.7986572E1,1.639026E1,3.9940565E0,1.5935806E1,0E0,0E0,0E0,0E0,4.5898438E-1,1.5765544E2,0E0,1.1377224E1,9.2125165E-1,0E0,0E0,3.5520397E1,0E0,0E0,0E0,0E0,0E0,0E0,0E0,0E0,0E0,0E0],"parents":[2147483647,0,0,1,1,3,3,4,4,5,5,6,6,7,7,8,8,9,9,11,11,12,12,13,13,14,14,19,19,20,20,22,22,23,23,26,26],"right_children":[2,4,-1,6,8,10,12,14,16,18,-1,20,22,24,26,-1,-1,-1,-1,28,30,-1,32,34,-1,-1,36,-1,-1,-1,-1,-1,-1,-1,-1,-1,-1],"split_conditions":[5.805E3,1.3208E4,3.20116E-1,9.36668E2,9.39628E2,5.2E1,5.745E1,1.184E3,1.3E0,1.2858E4,3.1383628E-1,3.27E3,9.37284E2,2.355E1,9.37511E2,-3.083782E-1,3.1866705E-1,-2.6058334E-1,-3.559558E-3,4.86E2,9.3749E2,-3.1875852E-1,9.39714E2,1.3533E4,2.8089252E-1,-3.4311152E-1,1.52E0,-3.4307054E-1,-6.2174626E-2,-3.430829E-1,3.123604E-1,3.0837858E-1,-2.6664007E-1,-2.2602497E-1,5.641172E-2,-3.348906E-1,2.4108163E-1],"split_indices":[13,5,0,7,7,13,2,13,8,5,0,13,7,1,7,0,0,0,0,4,7,0,7,5,0,0,8,0,0,0,0,0,0,0,0,0,0],"split_type":[0,0,0,0,0,0,0,0,0,0,0,0,0,0,0,0,0,0,0,0,0,0,0,0,0,0,0,0,0,0,0,0,0,0,0,0,0],"sum_hessian":[3.746901E3,1.9241567E3,1.8227443E3,1.4843506E3,4.3980618E2,4.9704662E1,1.4346459E3,2.4532465E2,1.9448154E2,3.5719926E0,4.6132668E1,1.4073248E3,2.7321026E1,9.3650255E0,2.3595961E2,7.2927275E0,1.8718881E2,2.3400974E0,1.2318952E0,1.1249335E3,2.8239133E2,5.459797E0,2.1861229E1,2.6650963E0,6.6999297E0,1.9588121E2,4.00784E1,1.1239177E3,1.0157523E0,2.4504007E2,3.735126E1,1.8990444E1,2.8707855E0,1.3991507E0,1.2659454E0,2.595825E1,1.412015E1],"tree_param":{"num_deleted":"0","num_feature":"14","num_nodes":"37","size_leaf_vector":"1"}},{"base_weights":[1.12674795E-1,-7.5768965E-1,3.1450358E-1,-9.52071E-1,-9.965036E-2,8.769005E-1,-1.016233E0,-9.3328834E-1,9.380008E-1,-5.612258E-1,3.0630475E-1,-1.0431672E0,3.304724E-1,5.035906E-1,-9.9764407E-1,-2.959364E-1,3.1270328E-1,-2.3594679E-1,-2.967921E-3,-1.0983515E0,-8.189346E-1,-8.3455294E-1,7.6037675E-1,-3.3330566E-1,2.6638308E-1,-1.0858092E0,-3.6959055E-1,-5.5459317E-2,-3.298324E-1,-3.2980704E-1,3.044083E-1,-4.7481943E-2,-2.872033E-1,2.945989E-1,-2.2251077E-1,-2.0367074E-1,4.7562275E-2,-3.2963988E-1,-1.9695039E-1,-3.135147E-1,2.872519E-1],"categories":[],"categories_nodes":[],"categories_segments":[],"categories_sizes":[],"default_left":[0,0,0,0,0,0,0,0,0,0,0,0,0,0,0,0,0,0,0,0,0,0,0,0,0,0,0,0,0,0,0,0,0,0,0,0,0,0,0,0,0],"id":6,"left_children":[1,3,-1,5,7,9,11,13,15,17,-1,19,21,23,25,-1,-1,-1,-1,27,29,31,33,35,-1,37,39,-1,-1,-1,-1,-1,-1,-1,-1,-1,-1,-1,-1,-1,-1],"loss_changes":[2.3178694E3,1.885263E2,0E0,1.3446484E2,2.9272125E2,8.679676E0,4.024951E1,1.7848602E1,3.1309387E1,5.148244E-1,0E0,1.2449707E1,1.1818972E1,3.0963678E0,9.559021E0,0E0,0E0,0E0,0E0,6.557617E-1,1.12690735E2,3.8790655E-1,6.3325386E0,6.9696474E-1,0E0,1.5542603E-1,2.2208307E1,0E0,0E0,0E0,0E0,0E0,0E0,0E0,0E0,0E0,0E0,0E0,0E0,0E0,0E0],"parents":[2147483647,0,0,1,1,3,3,4,4,5,5,6,6,7,7,8,8,9,9,11,11,12,12,13,13,14,14,19,19,20,20,21,21,22,22,23,23,25,25,26,26],"right_children":[2,4,-1,6,8,10,12,14,16,18,-1,20,22,24,26,-1,-1,-1,-1,28,30,32,34,36,-1,38,40,-1,-1,-1,-1,-1,-1,-1,-1,-1,-1,-1,-1,-1,-1],"split_conditions":[5.805E3,1.3208E4,3.1450358E-1,9.36668E2,9.39625E2,5.2E1,5.745E1,1.184E3,1.3E0,1.2858E4,3.0630475E-1,3.27E3,1.3088E4,2.355E1,9.396E2,-2.959364E-1,3.1270328E-1,-2.3594679E-1,-2.967921E-3,3.85E1,9.3749E2,1.2925E4,2.0054E4,1.3533E4,2.6638308E-1,9.37511E2,1.26E0,-5.5459317E-2,-3.298324E-1,-3.2980704E-1,3.044083E-1,-4.7481943E-2,-2.872033E-1,2.945989E-1,-2.2251077E-1,-2.0367074E-1,4.7562275E-2,-3.2963988E-1,-1.9695039E-1,-3.135147E-1,2.872519E-1],"split_indices":[13,5,0,7,7,13,2,13,8,5,0,13,5,1,7,0,0,0,0,2,7,5,6,5,0,7,8,0,0,0,0,0,0,0,0,0,0,0,0,0,0],"split_type":[0,0,0,0,0,0,0,0,0,0,0,0,0,0,0,0,0,0,0,0,0,0,0,0,0,0,0,0,0,0,0,0,0,0,0,0,0,0,0,0,0],"sum_hessian":[2.8442212E3,1.4736326E3,1.3705887E3,1.1372484E3,3.363841E2,3.8114216E1,1.0991343E3,1.8658458E2,1.4979951E2,3.2079363E0,3.490628E1,1.0778033E3,2.1330854E1,7.7060256E0,1.7887856E2,7.2695603E0,1.4252995E2,1.9746215E0,1.2333148E0,8.618112E2,2.1599216E2,5.495903E0,1.5834951E1,2.4670486E0,5.238977E0,1.5621982E2,2.2658745E1,1.2302783E0,8.6058093E2,1.8768881E2,2.8303343E1,1.1962812E0,4.2996216E0,1.4100744E1,1.7342076E0,1.2255796E0,1.2414689E0,1.5011798E2,6.101838E0,1.5156834E1,7.501911E0],"tree_param":{"num_deleted":"0","num_feature":"14","num_nodes":"41","size_leaf_vector":"1"}},{"base_weights":[1.1124315E-1,-7.345674E-1,3.104549E-1,-9.237512E-1,-9.6063256E-2,8.395524E-1,-9.8644924E-1,-8.5557115E-1,9.713788E-1,-4.943747E-1,2.9972976E-1,-1.0132189E0,2.9401466E-1,4.4775283E-1,-9.1644835E-1,-2.4110077E-1,3.0786708E-1,-2.148869E-1,-2.4746796E-3,-1.0666305E0,-7.94748E-1,-2.72204E-1,6.729268E-1,-2.9753485E-1,2.5200158E-1,-3.2008997E-1,-3.2087955E-1,-3.22184E-1,-1.9836435E-1,-3.2044756E-1,2.9729977E-1,2.9001927E-1,-2.2478293E-1,-1.8478811E-1,4.00872E-2,-2.7087244E-1,2.8641602E-1],"categories":[],"categories_nodes":[],"categories_segments":[],"categories_sizes":[],"default_left":[0,0,0,0,0,0,0,0,0,0,0,0,0,0,0,0,0,0,0,0,0,0,0,0,0,0,0,0,0,0,0,0,0,0,0,0,0],"id":7,"left_children":[1,3,-1,5,7,9,11,13,15,17,-1,19,21,23,25,-1,-1,-1,-1,27,29,-1,31,33,-1,-1,35,-1,-1,-1,-1,-1,-1,-1,-1,-1,-1],"loss_changes":[1.6792809E3,1.3546063E2,0E0,9.651892E1,2.0967865E2,6.933922E0,2.8963684E1,1.2394531E1,1.1295998E1,4.1499084E-1,0E0,8.713501E0,8.75909E0,2.41678E0,1.2622971E1,0E0,0E0,0E0,0E0,1.2341919E0,8.1565735E1,0E0,6.650528E0,5.345888E-1,0E0,0E0,2.3586878E1,0E0,0E0,0E0,0E0,0E0,0E0,0E0,0E0,0E0,0E0],"parents":[2147483647,0,0,1,1,3,3,4,4,5,5,6,6,7,7,8,8,9,9,11,11,12,12,13,13,14,14,19,19,20,20,22,22,23,23,26,26],"right_children":[2,4,-1,6,8,10,12,14,16,18,-1,20,22,24,26,-1,-1,-1,-1,28,30,-1,32,34,-1,-1,36,-1,-1,-1,-1,-1,-1,-1,-1,-1,-1],"split_conditions":[5.805E3,1.3208E4,3.104549E-1,9.36668E2,9.39634E2,5.2E1,5.745E1,1.184E3,1.3E0,1.2858E4,2.9972976E-1,3.27E3,9.37284E2,2.355E1,9.37511E2,-2.4110077E-1,3.0786708E-1,-2.148869E-1,-2.4746796E-3,4.54E2,9.3749E2,-2.72204E-1,9.39714E2,1.3533E4,2.5200158E-1,-3.2008997E-1,3.694E3,-3.22184E-1,-1.9836435E-1,-3.2044756E-1,2.9729977E-1,2.9001927E-1,-2.2478293E-1,-1.8478811E-1,4.00872E-2,-2.7087244E-1,2.8641602E-1],"split_indices":[13,5,0,7,7,13,2,13,8,5,0,13,7,1,7,0,0,0,0,4,7,0,7,5,0,0,13,0,0,0,0,0,0,0,0,0,0],"split_type":[0,0,0,0,0,0,0,0,0,0,0,0,0,0,0,0,0,0,0,0,0,0,0,0,0,0,0,0,0,0,0,0,0,0,0,0,0],"sum_hessian":[2.147655E3,1.1211473E3,1.0265077E3,8.6454315E2,2.5660413E2,2.9259745E1,8.3528345E2,1.5004347E2,1.0656065E2,2.901603E0,2.635814E1,8.183829E2,1.6900541E1,6.412064E0,1.4363141E2,2.7845721E0,1.03776085E2,1.6671075E0,1.2344954E0,6.5449097E2,1.6389194E2,3.7179554E0,1.3182587E1,2.2943058E0,4.1177583E0,1.1402287E2,2.9608528E1,6.4126965E2,1.3221314E1,1.424792E2,2.1412733E1,1.1190972E1,1.9916142E0,1.0731398E0,1.2211661E0,2.0532269E1,9.07626E0],"tree_param":{"num_deleted":"0","num_feature":"14","num_nodes":"37","size_leaf_vector":"1"}},{"base_weights":[1.1003328E-1,-7.1568465E-1,3.0748528E-1,-9.0220726E-1,-9.1497935E-2,8.004548E-1,-9.641856E-1,-8.1586444E-1,9.550369E-1,-4.3718812E-1,2.9347703E-1,-9.9086905E-1,2.620012E-1,-9.3729705E-1,-1.3951524E-1,-2.2334096E-1,3.0405003E-1,-1.9638436E-1,-2.0634315E-3,-1.0430007E0,-7.758887E-1,-2.5162187E-1,6.316793E-1,2.1538572E-1,-9.836156E-1,-7.004779E-1,2.789325E-1,-3.1578428E-1,-1.723803E-1,-3.1355757E-1,2.9038703E-1,2.7978036E-1,-2.0622988E-1,-3.1117803E-1,-1.672781E-1,8.748809E-2,-2.8682274E-1],"categories":[],"categories_nodes":[],"categories_segments":[],"categories_sizes":[],"default_left":[0,0,0,0,0,0,0,0,0,0,0,0,0,0,0,0,0,0,0,0,0,0,0,0,0,0,0,0,0,0,0,0,0,0,0,0,0],"id":8,"left_children":[1,3,-1,5,7,9,11,13,15,17,-1,19,21,23,25,-1,-1,-1,-1,27,29,-1,31,-1,33,35,-1,-1,-1,-1,-1,-1,-1,-1,-1,-1,-1],"loss_changes":[1.2225833E3,9.896066E1,0E0,6.9878784E1,1.4999663E2,5.6093006E0,2.0948425E1,9.467247E0,8.800056E0,3.3689934E-1,0E0,6.128784E0,6.3316517E0,8.288719E0,1.202582E1,0E0,0E0,0E0,0E0,1.6257324E0,5.9585785E1,0E0,5.1043067E0,0E0,1.629982E0,3.577423E0,0E0,0E0,0E0,0E0,0E0,0E0,0E0,0E0,0E0,0E0,0E0],"parents":[2147483647,0,0,1,1,3,3,4,4,5,5,6,6,7,7,8,8,9,9,11,11,12,12,13,13,14,14,19,19,20,20,22,22,24,24,25,25],"right_children":[2,4,-1,6,8,10,12,14,16,18,-1,20,22,24,26,-1,-1,-1,-1,28,30,-1,32,-1,34,36,-1,-1,-1,-1,-1,-1,-1,-1,-1,-1,-1],"split_conditions":[5.805E3,1.3208E4,3.0748528E-1,9.36668E2,9.39634E2,5.2E1,5.745E1,1.35E1,1.3E0,1.2858E4,2.9347703E-1,3.27E3,9.37284E2,9.30947E2,9.375E2,-2.2334096E-1,3.0405003E-1,-1.9638436E-1,-2.0634315E-3,4.54E2,9.3749E2,-2.5162187E-1,9.39714E2,2.1538572E-1,9.39608E2,9.36668E2,2.789325E-1,-3.1578428E-1,-1.723803E-1,-3.1355757E-1,2.9038703E-1,2.7978036E-1,-2.0622988E-1,-3.1117803E-1,-1.672781E-1,8.748809E-2,-2.8682274E-1],"split_indices":[13,5,0,7,7,13,2,10,8,5,0,13,7,7,7,0,0,0,0,4,7,0,7,0,7,7,0,0,0,0,0,0,0,0,0,0,0],"split_type":[0,0,0,0,0,0,0,0,0,0,0,0,0,0,0,0,0,0,0,0,0,0,0,0,0,0,0,0,0,0,0,0,0,0,0,0,0],"sum_hessian":[1.6163502E3,8.4970483E2,7.666453E2,6.538675E2,1.9583737E2,2.254689E1,6.313206E2,1.1586263E2,7.997473E1,2.6489863E0,1.9897903E1,6.180627E2,1.3257941E1,9.789977E1,1.7962866E1,2.2694232E0,7.770531E1,1.4135084E0,1.2354779E0,4.943369E2,1.23725746E2,3.0141816E0,1.0243759E1,2.2702255E0,9.562955E1,1.2008156E1,5.954711E0,4.8317285E2,1.1164052E1,1.07521736E2,1.620401E1,8.57956E0,1.6641994E0,8.366032E1,1.1969231E1,2.4310513E0,9.577105E0],"tree_param":{"num_deleted":"0","num_feature":"14","num_nodes":"37","size_leaf_vector":"1"}},{"base_weights":[1.08822085E-1,-6.976013E-1,3.0526462E-1,-8.844781E-1,-8.575131E-2,7.581061E-1,-9.463187E-1,-7.637273E-1,9.3931717E-1,-3.8803935E-1,2.8704917E-1,-9.7318745E-1,2.2890267E-1,-9.2696464E-1,-2.1085843E-1,-2.0662709E-1,3.007013E-1,-1.7989716E-1,-1.720617E-3,-1.0243498E0,-7.6004845E-1,-6.573901E-1,6.5274054E-1,3.613186E-1,-3.074882E-1,-2.9077548E-1,6.958683E-1,-1.0842516E-1,-3.1045184E-1,-3.0822653E-1,2.8316694E-1,-5.887539E-2,-2.2360274E-1,2.6401544E-1,-1.4016978E-1,-7.777306E-2,2.2671594E-1,-7.025953E-2,2.4948709E-1],"categories":[],"categories_nodes":[],"categories_segments":[],"categories_sizes":[],"default_left":[0,0,0,0,0,0,0,0,0,0,0,0,0,0,0,0,0,0,0,0,0,0,0,0,0,0,0,0,0,0,0,0,0,0,0,0,0,0,0],"id":9,"left_children":[1,3,-1,5,7,9,11,13,15,17,-1,19,21,23,25,-1,-1,-1,-1,27,29,31,33,35,-1,-1,37,-1,-1,-1,-1,-1,-1,-1,-1,-1,-1,-1,-1],"loss_changes":[8.9227435E2,7.3695404E1,0E0,5.0910156E1,1.06395615E2,4.5811872E0,1.5273682E1,8.114445E0,6.94738E0,2.7507967E-1,0E0,4.3049927E0,4.7352657E0,9.307831E0,1.5997967E1,0E0,0E0,0E0,0E0,2.2202759E0,4.3848328E1,2.4343014E-2,2.5131886E0,1.6017091E0,0E0,0E0,1.549726E0,0E0,0E0,0E0,0E0,0E0,0E0,0E0,0E0,0E0,0E0,0E0,0E0],"parents":[2147483647,0,0,1,1,3,3,4,4,5,5,6,6,7,7,8,8,9,9,11,11,12,12,13,13,14,14,19,19,20,20,21,21,22,22,23,23,26,26],"right_children":[2,4,-1,6,8,10,12,14,16,18,-1,20,22,24,26,-1,-1,-1,-1,28,30,32,34,36,-1,-1,38,-1,-1,-1,-1,-1,-1,-1,-1,-1,-1,-1,-1],"split_conditions":[5.805E3,1.3208E4,3.0526462E-1,9.36668E2,9.39634E2,5.2E1,5.745E1,9.37511E2,1.3E0,1.2858E4,2.8704917E-1,3.27E3,1.3088E4,1.184E3,1.52E0,-2.0662709E-1,3.007013E-1,-1.7989716E-1,-1.720617E-3,5.2E1,9.3749E2,1.2955E4,2.0049E4,2.355E1,-3.074882E-1,-2.9077548E-1,2.0077E4,-1.0842516E-1,-3.1045184E-1,-3.0822653E-1,2.8316694E-1,-5.887539E-2,-2.2360274E-1,2.6401544E-1,-1.4016978E-1,-7.777306E-2,2.2671594E-1,-7.025953E-2,2.4948709E-1],"split_indices":[13,5,0,7,7,13,2,7,8,5,0,13,5,13,8,0,0,0,0,13,7,5,6,1,0,0,6,0,0,0,0,0,0,0,0,0,0,0,0],"split_type":[0,0,0,0,0,0,0,0,0,0,0,0,0,0,0,0,0,0,0,0,0,0,0,0,0,0,0,0,0,0,0,0,0,0,0,0,0,0,0],"sum_hessian":[1.215624E3,6.441891E2,5.714349E2,4.9312796E2,1.5106117E2,1.748336E1,4.756446E2,9.1077705E1,5.998346E1,2.4426563E0,1.5040705E1,4.6518118E2,1.0463395E1,6.979402E1,2.1283684E1,1.865325E0,5.8118134E1,1.2063608E0,1.2362955E0,3.7206415E2,9.311704E1,3.2067266E0,7.2566686E0,4.7437844E0,6.505024E1,1.1552298E1,9.731386E0,6.347777E0,3.6571637E2,8.083056E1,1.2286487E1,1.0312363E0,2.1754901E0,6.210417E0,1.0462514E0,1.9765365E0,2.7672482E0,1.1471372E0,8.584249E0],"tree_param":{"num_deleted":"0","num_feature":"14","num_nodes":"39","size_leaf_vector":"1"}},{"base_weights":[1.0741861E-1,-6.831607E-1,3.0355963E-1,-8.6798835E-1,-8.419812E-2,7.116459E-1,-9.30138E-1,-7.7704585E-1,8.65687E-1,-3.457517E-1,2.800414E-1,-9.5531803E-1,3.118544E-1,3.2043895E-1,-8.5455346E-1,-2.3697385E-1,2.9796222E-1,-1.651178E-1,-1.434715E-3,-1.0086871E0,-7.318421E-1,-2.1924461E-1,2.456877E-1,-7.5493224E-2,2.2105518E-1,-3.0278215E-1,-2.7039093E-1,-3.0775228E-1,-9.942726E-2,-3.0383447E-1,2.7676937E-1,-2.24828E-1,2.5534683E-1],"categories":[],"categories_nodes":[],"categories_segments":[],"categories_sizes":[],"default_left":[0,0,0,0,0,0,0,0,0,0,0,0,0,0,0,0,0,0,0,0,0,0,0,0,0,0,0,0,0,0,0,0,0],"id":10,"left_children":[1,3,-1,5,7,9,11,13,15,17,-1,19,21,23,25,-1,-1,-1,-1,27,29,-1,-1,-1,-1,-1,31,-1,-1,-1,-1,-1,-1],"loss_changes":[6.53678E2,5.393773E1,0E0,3.7253754E1,7.7117935E1,3.7651277E0,1.1526581E1,6.031986E0,1.122744E1,2.2585967E-1,0E0,3.4619446E0,4.769534E0,1.422408E0,5.4663315E0,0E0,0E0,0E0,0E0,2.9318542E0,3.4181458E1,0E0,0E0,0E0,0E0,0E0,8.515558E0,0E0,0E0,0E0,0E0,0E0,0E0],"parents":[2147483647,0,0,1,1,3,3,4,4,5,5,6,6,7,7,8,8,9,9,11,11,12,12,13,13,14,14,19,19,20,20,26,26],"right_children":[2,4,-1,6,8,10,12,14,16,18,-1,20,22,24,26,-1,-1,-1,-1,28,30,-1,-1,-1,-1,-1,32,-1,-1,-1,-1,-1,-1],"split_conditions":[5.805E3,1.3208E4,3.0355963E-1,9.36668E2,9.39625E2,5.2E1,5.778E1,1.184E3,1.3E0,1.2858E4,2.800414E-1,3.27E3,9.37284E2,2.031E4,9.37511E2,-2.3697385E-1,2.9796222E-1,-1.651178E-1,-1.434715E-3,4.54E2,9.3749E2,-2.1924461E-1,2.456877E-1,-7.5493224E-2,2.2105518E-1,-3.0278215E-1,1.83E0,-3.0775228E-1,-9.942726E-2,-3.0383447E-1,2.7676937E-1,-2.24828E-1,2.5534683E-1],"split_indices":[13,5,0,7,7,13,2,13,8,5,0,13,7,6,7,0,0,0,0,4,7,0,0,0,0,0,8,0,0,0,0,0,0],"split_type":[0,0,0,0,0,0,0,0,0,0,0,0,0,0,0,0,0,0,0,0,0,0,0,0,0,0,0,0,0,0,0,0,0],"sum_hessian":[9.1222095E2,4.8688135E2,4.253396E2,3.7172534E2,1.15156006E2,1.3676046E1,3.5804932E2,6.669241E1,4.8463593E1,2.274637E0,1.1401409E1,3.5116074E2,6.8885765E0,4.1925683E0,6.2499844E1,3.0944095E0,4.5369183E1,1.0376605E0,1.2369766E0,2.8062897E2,7.053175E1,2.1096733E0,4.778903E0,1.9328396E0,2.259729E0,4.8837177E1,1.3662664E1,2.7319482E2,7.4341383E0,6.0624725E1,9.907026E0,9.806079E0,3.856585E0],"tree_param":{"num_deleted":"0","num_feature":"14","num_nodes":"33","size_leaf_vector":"1"}},{"base_weights":[1.0635114E-1,-6.672267E-1,3.021991E-1,-8.522421E-1,-7.9412125E-2,6.60892E-1,-9.152544E-1,-7.699151E-1,8.031425E-1,-3.1015676E-1,2.7640742E-1,-9.414375E-1,2.7801386E-1,2.8348538E-1,-8.607765E-1,-2.4257736E-1,2.9535636E-1,-1.8196543E-1,4.4823006E-2,-1.1751999E-1,-9.55184E-1,-2.0251597E-1,2.2841538E-1,-7.390645E-2,2.0425856E-1,-2.9848766E-1,-2.9061705E-1,-2.4115331E-1,4.3910113E-1,-3.0373E-1,-2.1532448E-1,-2.1071306E-1,2.265015E-1],"categories":[],"categories_nodes":[],"categories_segments":[],"categories_sizes":[],"default_left":[0,0,0,0,0,0,0,0,0,0,0,0,0,0,0,0,0,0,0,0,0,0,0,0,0,0,0,0,0,0,0,0,0],"id":11,"left_children":[1,3,-1,5,7,9,11,13,15,17,-1,19,21,23,25,-1,-1,-1,-1,27,29,-1,-1,-1,-1,-1,31,-1,-1,-1,-1,-1,-1],"loss_changes":[4.7879605E2,4.0138443E1,0E0,2.7405457E1,5.5225906E1,3.274888E0,8.705902E0,5.1047745E0,1.243778E1,5.3300524E-1,0E0,2.8856506E0,3.542984E0,1.1751648E0,3.3065643E0,0E0,0E0,0E0,0E0,7.127925E0,2.810379E0,0E0,0E0,0E0,0E0,0E0,4.993495E0,0E0,0E0,0E0,0E0,0E0,0E0],"parents":[2147483647,0,0,1,1,3,3,4,4,5,5,6,6,7,7,8,8,9,9,11,11,12,12,13,13,14,14,19,19,20,20,26,26],"right_children":[2,4,-1,6,8,10,12,14,16,18,-1,20,22,24,26,-1,-1,-1,-1,28,30,-1,-1,-1,-1,-1,32,-1,-1,-1,-1,-1,-1],"split_conditions":[5.805E3,1.3208E4,3.021991E-1,9.36668E2,9.39619E2,2.355E1,5.778E1,1.184E3,1.3E0,1.2876E4,2.7640742E-1,5.2E1,9.37284E2,2.355E1,9.37511E2,-2.4257736E-1,2.9535636E-1,-1.8196543E-1,4.4823006E-2,2.05E0,3.27E3,-2.0251597E-1,2.2841538E-1,-7.390645E-2,2.0425856E-1,-2.9848766E-1,1.83E0,-2.4115331E-1,4.3910113E-1,-3.0373E-1,-2.1532448E-1,-2.1071306E-1,2.265015E-1],"split_indices":[13,5,0,7,7,1,2,13,8,5,0,13,7,1,7,0,0,0,0,8,13,0,0,0,0,0,8,0,0,0,0,0,0],"split_type":[0,0,0,0,0,0,0,0,0,0,0,0,0,0,0,0,0,0,0,0,0,0,0,0,0,0,0,0,0,0,0,0,0],"sum_hessian":[6.849963E2,3.6869522E2,3.163011E2,2.8008746E2,8.860776E1,1.081821E1,2.6926926E2,4.9784462E1,3.8823296E1,2.2477076E0,8.570502E0,2.636942E2,5.575014E0,3.7848506E0,4.599961E1,3.5773025E0,3.5245995E1,1.1720005E0,1.0757072E0,4.4840674E0,2.5921017E2,1.7425858E0,3.8324285E0,1.7849464E0,1.9999043E0,3.6633224E1,9.366387E0,3.4696622E0,1.0144051E0,2.0622276E2,5.2987392E1,6.955587E0,2.4108002E0],"tree_param":{"num_deleted":"0","num_feature":"14","num_nodes":"33","size_leaf_vector":"1"}},{"base_weights":[1.0515499E-1,-6.340609E-1,3.0105114E-1,-8.144238E-1,-8.455665E-2,6.0791886E-1,-8.765566E-1,-6.507916E-1,8.847938E-1,-9.289732E-2,2.6339248E-1,-9.0689266E-1,1.6994403E-1,-9.017529E-1,-1.7244647E-1,-1.6393356E-1,2.9077214E-1,-9.785602E-1,-6.409291E-1,-1.868601E-1,5.094451E-1,1.528062E-1,-2.9054597E-1,4.3981433E-1,-2.6767415E-1,-3.0281383E-1,-3.5641696E-2,-2.9717466E-1,2.7046815E-1,-9.087961E-2,2.337819E-1,-1.2124643E-1,1.9517177E-1],"categories":[],"categories_nodes":[],"categories_segments":[],"categories_sizes":[],"default_left":[0,0,0,0,0,0,0,0,0,0,0,0,0,0,0,0,0,0,0,0,0,0,0,0,0,0,0,0,0,0,0,0,0],"id":12,"left_children":[1,3,-1,5,7,9,11,13,15,-1,-1,17,19,21,23,-1,-1,25,27,-1,29,-1,-1,31,-1,-1,-1,-1,-1,-1,-1,-1,-1],"loss_changes":[3.473662E2,2.8380188E1,0E0,1.9621262E1,4.0122433E1,2.658398E0,6.7372437E0,5.3735905E0,3.7919216E0,0E0,0E0,3.217041E0,2.1163657E0,3.315771E0,7.9220934E0,0E0,0E0,4.0393524E0,2.5545134E1,0E0,1.3824886E0,0E0,0E0,2.0242765E0,0E0,0E0,0E0,0E0,0E0,0E0,0E0,0E0,0E0],"parents":[2147483647,0,0,1,1,3,3,4,4,5,5,6,6,7,7,8,8,11,11,12,12,13,13,14,14,17,17,18,18,20,20,23,23],"right_children":[2,4,-1,6,8,10,12,14,16,-1,-1,18,20,22,24,-1,-1,26,28,-1,30,-1,-1,32,-1,-1,-1,-1,-1,-1,-1,-1,-1],"split_conditions":[5.805E3,1.3203E4,3.0105114E-1,9.36668E2,9.39637E2,5.2E1,5.745E1,1.199E1,1.3E0,-9.289732E-2,2.6339248E-1,3.27E3,9.37284E2,9.30947E2,2.0496E4,-1.6393356E-1,2.9077214E-1,4.54E2,9.3749E2,-1.868601E-1,1.28E0,1.528062E-1,-2.9054597E-1,2.0062E4,-2.6767415E-1,-3.0281383E-1,-3.5641696E-2,-2.9717466E-1,2.7046815E-1,-9.087961E-2,2.337819E-1,-1.2124643E-1,1.9517177E-1],"split_indices":[13,5,0,7,7,13,2,10,8,0,0,13,7,7,6,0,0,4,7,0,9,0,0,6,0,0,0,0,0,0,0,0,0],"split_type":[0,0,0,0,0,0,0,0,0,0,0,0,0,0,0,0,0,0,0,0,0,0,0,0,0,0,0,0,0,0,0,0,0],"sum_hessian":[5.211257E2,2.8604483E2,2.3508084E2,2.149952E2,7.104964E1,8.630969E0,2.0636423E2,4.5058094E1,2.5991537E1,1.9292529E0,6.7017164E0,2.0068028E2,5.683937E0,2.8972614E1,1.6085482E1,1.1433101E0,2.4848228E1,1.5597212E2,4.4708153E1,1.4539601E0,4.229977E0,1.0087882E0,2.7963825E1,8.902237E0,7.1832447E0,1.5040654E2,5.565585E0,3.673812E1,7.970031E0,1.0240777E0,3.2058995E0,1.5955052E0,7.306731E0],"tree_param":{"num_deleted":"0","num_feature":"14","num_nodes":"33","size_leaf_vector":"1"}},{"base_weights":[1.0309616E-1,-6.1615384E-1,3.00008E-1,-7.953316E-1,-8.3368644E-2,5.5452824E-1,-8.597563E-1,-6.12942E-1,8.6138105E-1,-8.469044E-2,2.5849473E-1,-8.920061E-1,1.3968092E-1,-8.683724E-1,-1.6485421E-1,-1.4600134E-1,2.8647456E-1,9.233428E-2,-9.155778E-1,-1.473872E-1,5.164555E-1,8.841542E-2,-9.40486E-1,3.5663438E-1,-2.5731727E-1,-2.1732676E-1,4.163175E-1,-2.9667148E-1,-1.7975166E-1,2.0496075E-1,3.3913128E-4,-2.8781933E-1,-8.39196E-2,-2.835432E-3,2.3428951E-1],"categories":[],"categories_nodes":[],"categories_segments":[],"categories_sizes":[],"default_left":[0,0,0,0,0,0,0,0,0,0,0,0,0,0,0,0,0,0,0,0,0,0,0,0,0,0,0,0,0,0,0,0,0,0,0],"id":13,"left_children":[1,3,-1,5,7,9,11,13,15,-1,-1,17,19,21,23,-1,-1,25,27,-1,29,-1,31,33,-1,-1,-1,-1,-1,-1,-1,-1,-1,-1,-1],"loss_changes":[2.5471191E2,2.0859955E1,0E0,1.4732216E1,2.8687883E1,2.3186014E0,5.1800613E0,4.051799E0,3.0663185E0,0E0,0E0,3.613205E0,1.624876E0,2.2155094E0,5.560115E0,0E0,0E0,5.7294054E0,2.855507E0,0E0,3.514253E-1,0E0,6.526947E-3,1.405956E0,0E0,0E0,0E0,0E0,0E0,0E0,0E0,0E0,0E0,0E0,0E0],"parents":[2147483647,0,0,1,1,3,3,4,4,5,5,6,6,7,7,8,8,11,11,12,12,13,13,14,14,17,17,18,18,20,20,22,22,23,23],"right_children":[2,4,-1,6,8,10,12,14,16,-1,-1,18,20,22,24,-1,-1,26,28,-1,30,-1,32,34,-1,-1,-1,-1,-1,-1,-1,-1,-1,-1,-1],"split_conditions":[5.805E3,1.3203E4,3.00008E-1,9.36668E2,9.39637E2,2.355E1,5.745E1,1.199E1,1.53E0,-8.469044E-2,2.5849473E-1,5.2E1,1.3088E4,9.31137E2,2.0496E4,-1.4600134E-1,2.8647456E-1,2.17E0,2.16E2,-1.473872E-1,1.9997E4,8.841542E-2,1.14E1,9.3959E2,-2.5731727E-1,-2.1732676E-1,4.163175E-1,-2.9667148E-1,-1.7975166E-1,2.0496075E-1,3.3913128E-4,-2.8781933E-1,-8.39196E-2,-2.835432E-3,2.3428951E-1],"split_indices":[13,5,0,7,7,1,2,10,8,0,0,13,5,7,6,0,0,8,3,0,6,0,10,7,0,0,0,0,0,0,0,0,0,0,0],"split_type":[0,0,0,0,0,0,0,0,0,0,0,0,0,0,0,0,0,0,0,0,0,0,0,0,0,0,0,0,0,0,0,0,0,0,0],"sum_hessian":[3.928753E2,2.1820744E2,1.7466786E2,1.62923E2,5.528444E1,7.0750713E0,1.5584795E2,3.565146E1,1.9632982E1,1.9211681E0,5.1539035E0,1.5108038E2,4.767564E0,2.210987E1,1.3541585E1,1.0011308E0,1.8631851E1,3.465048E0,1.4761533E2,1.6688534E0,3.0987105E0,1.1106007E0,2.0999271E1,8.003232E0,5.538353E0,2.395457E0,1.0695909E0,1.1811642E2,2.9498913E1,2.0950363E0,1.0036741E0,1.9975569E1,1.0237023E0,4.8213773E0,3.1818552E0],"tree_param":{"num_deleted":"0","num_feature":"14","num_nodes":"35","size_leaf_vector":"1"}},{"base_weights":[1.0094608E-1,-5.7336515E-1,2.989747E-1,-9.6669775E-1,-3.1838614E-1,1.721182E-2,-2.984534E-1,1.1889545E-1,-2.9592288E-1,-8.2237005E-1,6.845132E-1,-2.8986138E-1,1.951621E-1,9.67473E-2,2.9232788E-1,-1.1844191E-1,1.8974958E-1],"categories":[],"categories_nodes":[],"categories_segments":[],"categories_sizes":[],"default_left":[0,0,0,0,0,0,0,0,0,0,0,0,0,0,0,0,0],"id":14,"left_children":[1,3,-1,5,7,-1,-1,9,-1,11,13,-1,-1,15,-1,-1,-1],"loss_changes":[1.8395001E2,1.7128597E1,0E0,2.0138474E0,3.1364914E1,0E0,0E0,3.54579E1,0E0,5.9368668E0,6.9751377E0,0E0,0E0,4.151015E0,0E0,0E0,0E0],"parents":[2147483647,0,0,1,1,3,3,4,4,7,7,9,9,10,10,13,13],"right_children":[2,4,-1,6,8,-1,-1,10,-1,12,14,-1,-1,16,-1,-1,-1],"split_conditions":[5.805E3,1.6547365E9,2.989747E-1,5.2E1,1.6551246E9,1.721182E-2,-2.984534E-1,1.11E0,-2.9592288E-1,1.6547648E9,3.209E3,-2.8986138E-1,1.951621E-1,4.53E2,2.9232788E-1,-1.1844191E-1,1.8974958E-1],"split_indices":[13,0,0,13,0,0,0,8,0,0,13,0,0,4,0,0,0],"split_type":[0,0,0,0,0,0,0,0,0,0,0,0,0,0,0,0,0],"sum_hessian":[3.0263837E2,1.7285684E2,1.2978154E2,6.688628E1,1.0597056E2,1.761433E0,6.512485E1,6.454322E1,4.142734E1,2.4056301E1,4.0486916E1,2.2229532E1,1.8267695E0,1.3814099E1,2.6672817E1,7.3414097E0,6.4726896E0],"tree_param":{"num_deleted":"0","num_feature":"14","num_nodes":"17","size_leaf_vector":"1"}},{"base_weights":[9.859191E-2,-5.533815E-1,2.9785994E-1,-9.503096E-1,-3.0250064E-1,1.3752888E-2,-2.961579E-1,1.1360965E-1,-2.9282963E-1,-4.3804148E-1,2.8809255E-1,3.072851E-1,-9.44765E-1,-6.6254544E-3,2.8862366E-1,-2.9119888E-1,-7.80393E-2],"categories":[],"categories_nodes":[],"categories_segments":[],"categories_sizes":[],"default_left":[0,0,0,0,0,0,0,0,0,0,0,0,0,0,0,0,0],"id":15,"left_children":[1,3,-1,5,7,-1,-1,9,-1,11,-1,13,15,-1,-1,-1,-1],"loss_changes":[1.3481265E2,1.3039028E1,0E0,1.9323044E0,2.3505299E1,0E0,0E0,2.4937357E1,0E0,1.2552944E1,0E0,3.0180116E0,9.455109E-2,0E0,0E0,0E0,0E0],"parents":[2147483647,0,0,1,1,3,3,4,4,7,7,9,9,11,11,12,12],"right_children":[2,4,-1,6,8,-1,-1,10,-1,12,-1,14,16,-1,-1,-1,-1],"split_conditions":[5.805E3,1.6547365E9,2.9785994E-1,5.2E1,1.6551246E9,1.3752888E-2,-2.961579E-1,3.209E3,-2.9282963E-1,9.39577E2,2.8809255E-1,2.714E1,5.684E1,-6.6254544E-3,2.8862366E-1,-2.9119888E-1,-7.80393E-2],"split_indices":[13,0,0,13,0,0,0,13,0,7,0,1,2,0,0,0,0],"split_type":[0,0,0,0,0,0,0,0,0,0,0,0,0,0,0,0,0],"sum_hessian":[2.2928004E2,1.3282487E2,9.645516E1,5.0360203E1,8.2464676E1,1.7893796E0,4.8570824E1,5.1489037E1,3.097564E1,3.1468779E1,2.002026E1,1.2895178E1,1.85736E1,9.22244E0,3.672738E0,1.7494062E1,1.0795386E0],"tree_param":{"num_deleted":"0","num_feature":"14","num_nodes":"17","size_leaf_vector":"1"}},{"base_weights":[9.581895E-2,-5.317194E-1,2.965691E-1,-8.175078E-1,-1.8524875E-1,2.2889207E-1,-2.95996E-1,-9.305187E-1,7.9987854E-1,-3.5517618E-1,2.2297199E-1,-2.904883E-1,9.411842E-3,-7.226316E-2,8.926402E-1,-2.0357575E-1,2.458906E-2,6.2810326E-1,1.2783844E0,-6.724533E-2,2.730504E-1,6.191648E-1,2.383771E-1],"categories":[],"categories_nodes":[],"categories_segments":[],"categories_sizes":[],"default_left":[0,0,0,0,0,0,0,0,0,0,0,0,0,0,0,0,0,0,0,0,0,0,0],"id":16,"left_children":[1,3,-1,5,7,9,-1,11,13,15,-1,-1,-1,-1,17,-1,-1,19,21,-1,-1,-1,-1],"loss_changes":[9.8757225E1,1.0108187E1,0E0,1.0223606E1,3.6079163E1,2.8691466E0,0E0,1.0427685E0,2.268094E0,7.253677E-1,0E0,0E0,0E0,0E0,1.2112083E0,0E0,0E0,3.4912586E0,1.0444117E0,0E0,0E0,0E0,0E0],"parents":[2147483647,0,0,1,1,3,3,4,4,5,5,7,7,8,8,9,9,14,14,17,17,18,18],"right_children":[2,4,-1,6,8,10,-1,12,14,16,-1,-1,-1,-1,18,-1,-1,20,22,-1,-1,-1,-1],"split_conditions":[5.805E3,9.3758E2,2.965691E-1,9.36668E2,1.26E0,2.355E1,-2.95996E-1,1.88E2,1.2858E4,1.9957E4,2.2297199E-1,-2.904883E-1,9.411842E-3,-7.226316E-2,2.24E0,-2.0357575E-1,2.458906E-2,3.209E3,2.27E0,-6.724533E-2,2.730504E-1,6.191648E-1,2.383771E-1],"split_indices":[13,7,0,7,8,1,0,3,5,6,0,0,0,0,8,0,0,13,8,0,0,0,0],"split_type":[0,0,0,0,0,0,0,0,0,0,0,0,0,0,0,0,0,0,0,0,0,0,0],"sum_hessian":[1.7434106E2,1.026145E2,7.1726555E1,5.548655E1,4.7127953E1,7.6719093E0,4.781464E1,2.6861834E1,2.0266119E1,3.7373831E0,3.9345262E0,2.5840366E1,1.0214664E0,1.527813E0,1.8738306E1,1.830667E0,1.9067161E0,1.2674582E1,6.0637255E0,3.2027721E0,9.471809E0,1.0663475E0,4.997378E0],"tree_param":{"num_deleted":"0","num_feature":"14","num_nodes":"23","size_leaf_vector":"1"}},{"base_weights":[9.723821E-2,-5.0033915E-1,2.9499695E-1,-7.8936416E-1,-1.5791947E-1,1.9070157E-1,-2.9342112E-1,-9.30431E-1,7.285411E-1,-2.961486E-1,2.0260224E-1,-2.8606358E-1,-7.944891E-2,-6.1955705E-2,8.197493E-1,-1.7207904E-1,1.979035E-2,4.4163832E-1,3.275601E-1,-8.662795E-2,2.5037658E-1],"categories":[],"categories_nodes":[],"categories_segments":[],"categories_sizes":[],"default_left":[0,0,0,0,0,0,0,0,0,0,0,0,0,0,0,0,0,0,0,0,0],"id":17,"left_children":[1,3,-1,5,7,9,-1,11,13,15,-1,-1,-1,-1,17,-1,-1,19,-1,-1,-1],"loss_changes":[7.154107E1,7.871855E0,0E0,8.243738E0,2.6860165E1,2.05709E0,0E0,6.8538666E-2,1.7355137E0,5.021646E-1,0E0,0E0,0E0,0E0,1.2601023E0,0E0,0E0,2.7568831E0,0E0,0E0,0E0],"parents":[2147483647,0,0,1,1,3,3,4,4,5,5,7,7,8,8,9,9,14,14,17,17],"right_children":[2,4,-1,6,8,10,-1,12,14,16,-1,-1,-1,-1,18,-1,-1,20,-1,-1,-1],"split_conditions":[5.805E3,9.3758E2,2.9499695E-1,9.36668E2,1.2E0,2.355E1,-2.9342112E-1,1.74E2,1.2858E4,1.9957E4,2.0260224E-1,-2.8606358E-1,-7.944891E-2,-6.1955705E-2,1.392E1,-1.7207904E-1,1.979035E-2,3.209E3,3.275601E-1,-8.662795E-2,2.5037658E-1],"split_indices":[13,7,0,7,8,1,0,3,5,6,0,0,0,0,10,0,0,13,0,0,0],"split_type":[0,0,0,0,0,0,0,0,0,0,0,0,0,0,0,0,0,0,0,0,0],"sum_hessian":[1.3318036E2,7.9799065E1,5.3381298E1,4.2565605E1,3.7233456E1,6.870798E0,3.5694805E1,1.9868942E1,1.7364515E1,3.621603E0,3.2491953E0,1.8784025E1,1.0849167E0,1.430888E0,1.5933626E1,1.7198601E0,1.901743E0,7.765849E0,8.167778E0,2.8092642E0,4.956585E0],"tree_param":{"num_deleted":"0","num_feature":"14","num_nodes":"21","size_leaf_vector":"1"}},{"base_weights":[9.420324E-2,-4.725819E-1,2.9302362E-1,-6.3650846E-1,1.2535532E-1,-8.6753243E-1,-2.2680596E-1,-3.8697565E-1,1.0049653E0,2.7149817E-1,-2.9233924E-1,-2.7436697E-1,6.4535266E-1,2.2649223E-1,-2.5135657E-1,1.3546473E0,4.232475E-1,2.8255858E-2,2.5599945E-1,-1.8011072E-1,2.0321637E-1,1.2503956E-1,4.9185434E-1,-8.111428E-3,1.83339E-1,-2.639508E-1,2.6239455E-1,1.6951236E-1,-2.4002895E-1],"categories":[],"categories_nodes":[],"categories_segments":[],"categories_sizes":[],"default_left":[0,0,0,0,0,0,0,0,0,0,0,0,0,0,0,0,0,0,0,0,0,0,0,0,0,0,0,0,0],"id":18,"left_children":[1,3,-1,5,7,9,11,13,15,-1,-1,-1,17,19,-1,21,23,25,-1,27,-1,-1,-1,-1,-1,-1,-1,-1,-1],"loss_changes":[5.2207027E1,6.3202105E0,0E0,4.5482864E0,6.93876E0,6.8906746E0,1.2244771E1,2.929934E0,5.713968E-1,0E0,0E0,0E0,1.1505797E0,1.0357198E0,0E0,1.3426971E-1,3.1831467E-1,3.337755E0,0E0,2.027726E0,0E0,0E0,0E0,0E0,0E0,0E0,0E0,0E0,0E0],"parents":[2147483647,0,0,1,1,3,3,4,4,5,5,6,6,7,7,8,8,12,12,13,13,15,15,16,16,17,17,19,19],"right_children":[2,4,-1,6,8,10,12,14,16,-1,-1,-1,18,20,-1,22,24,26,-1,28,-1,-1,-1,-1,-1,-1,-1,-1,-1],"split_conditions":[5.805E3,1.53E1,2.9302362E-1,3.149E3,9.3758E2,1.954E1,9.37511E2,9.36668E2,3.1E1,2.7149817E-1,-2.9233924E-1,-2.7436697E-1,3.209E3,3.95606E3,-2.5135657E-1,2.4E1,4.955E1,5.525E1,2.5599945E-1,3.533E1,2.0321637E-1,1.2503956E-1,4.9185434E-1,-8.111428E-3,1.83339E-1,-2.639508E-1,2.6239455E-1,1.6951236E-1,-2.4002895E-1],"split_indices":[13,10,0,13,7,2,7,7,3,0,0,0,13,10,0,3,2,2,0,2,0,0,0,0,0,0,0,0,0],"split_type":[0,0,0,0,0,0,0,0,0,0,0,0,0,0,0,0,0,0,0,0,0,0,0,0,0,0,0,0,0],"sum_hessian":[1.0244707E2,6.2666187E1,3.978088E1,4.9131973E1,1.3534211E1,3.0702124E1,1.8429852E1,8.9066E0,4.6276107E0,1.3221712E0,2.9379951E1,1.0277109E1,8.152743E0,3.9838412E0,4.922759E0,2.0603762E0,2.5672345E0,2.3414004E0,5.8113427E0,2.4105947E0,1.5732464E0,1.0538826E0,1.0064936E0,1.0078582E0,1.5593765E0,1.110469E0,1.2309314E0,1.1350349E0,1.2755598E0],"tree_param":{"num_deleted":"0","num_feature":"14","num_nodes":"29","size_leaf_vector":"1"}},{"base_weights":[9.896092E-2,-4.3406102E-1,2.905071E-1,-6.134685E-1,1.4412685E-1,-8.460543E-1,-2.1198887E-1,-6.351978E-1,6.1465365E-1,2.5964308E-1,-2.8868708E-1,-2.6672077E-1,5.970637E-1,-4.1349348E-2,-2.2715393E-1,9.427833E-3,3.067039E-1,2.1754734E-2,2.4466918E-1,-3.961315E-1,1.7988376E-1,-2.3403521E-1,2.3338996E-1,2.9872319E-2,-2.2045998E-1],"categories":[],"categories_nodes":[],"categories_segments":[],"categories_sizes":[],"default_left":[0,0,0,0,0,0,0,0,0,0,0,0,0,0,0,0,0,0,0,0,0,0,0,0,0],"id":19,"left_children":[1,3,-1,5,7,9,11,13,15,-1,-1,-1,17,-1,-1,19,-1,21,-1,23,-1,-1,-1,-1,-1],"loss_changes":[3.7466427E1,5.300828E0,0E0,3.4194384E0,5.0508623E0,5.621048E0,9.0059595E0,2.1575642E-1,2.0711548E0,0E0,0E0,0E0,9.435234E-1,0E0,0E0,1.2915258E0,0E0,2.506273E0,0E0,6.1253804E-1,0E0,0E0,0E0,0E0,0E0],"parents":[2147483647,0,0,1,1,3,3,4,4,5,5,6,6,7,7,8,8,12,12,15,15,17,17,19,19],"right_children":[2,4,-1,6,8,10,12,14,16,-1,-1,-1,18,-1,-1,20,-1,22,-1,24,-1,-1,-1,-1,-1],"split_conditions":[5.805E3,1.53E1,2.905071E-1,3.149E3,1.2858E4,1.954E1,9.37511E2,9.36757E2,9.3758E2,2.5964308E-1,-2.8868708E-1,-2.6672077E-1,3.209E3,-4.1349348E-2,-2.2715393E-1,3.95606E3,3.067039E-1,5.525E1,2.4466918E-1,3.85E1,1.7988376E-1,-2.3403521E-1,2.3338996E-1,2.9872319E-2,-2.2045998E-1],"split_indices":[13,10,0,13,5,2,7,7,7,0,0,0,13,0,0,10,0,2,0,2,0,0,0,0,0],"split_type":[0,0,0,0,0,0,0,0,0,0,0,0,0,0,0,0,0,0,0,0,0,0,0,0,0],"sum_hessian":[7.894288E1,4.92492E1,2.969368E1,3.753984E1,1.1709359E1,2.3068449E1,1.4471392E1,4.2764254E0,7.432934E0,1.0571046E0,2.2011345E1,7.8244014E0,6.6469903E0,1.2617444E0,3.0146809E0,3.4035046E0,4.0294294E0,2.13228E0,4.51471E0,2.2121644E0,1.1913401E0,1.0195534E0,1.1127267E0,1.1846236E0,1.0275409E0],"tree_param":{"num_deleted":"0","num_feature":"14","num_nodes":"25","size_leaf_vector":"1"}},{"base_weights":[9.6635826E-2,-4.0343484E-1,2.87288E-1,-5.8657974E-1,1.1745991E-1,-6.764944E-1,2.9411384E-1,-5.7630426E-1,5.2626103E-1,-7.357021E-1,1.25748E-1,-9.33043E-2,2.0436132E-1,-3.462566E-2,-2.134587E-1,4.966702E-3,2.6528156E-1,-9.456161E-1,-2.1436773E-1,-3.54786E-1,1.652903E-1,-8.23099E-2,-2.9068595E-1,-2.4929315E-1,2.225162E-1,-1.5455937E-1,-3.5706367E-3],"categories":[],"categories_nodes":[],"categories_segments":[],"categories_sizes":[],"default_left":[0,0,0,0,0,0,0,0,0,0,0,0,0,0,0,0,0,0,0,0,0,0,0,0,0,0,0],"id":20,"left_children":[1,3,-1,5,7,9,11,13,15,17,-1,-1,-1,-1,-1,19,-1,21,23,25,-1,-1,-1,-1,-1,-1,-1],"loss_changes":[2.7249485E1,3.90126E0,0E0,2.5657625E0,3.5033424E0,2.087325E0,1.0236869E0,2.0835292E-1,1.4181716E0,2.6841774E0,0E0,0E0,0E0,0E0,0E0,1.0026127E0,0E0,2.4173737E-2,5.8430457E0,1.6356984E-1,0E0,0E0,0E0,0E0,0E0,0E0,0E0],"parents":[2147483647,0,0,1,1,3,3,4,4,5,5,6,6,7,7,8,8,9,9,15,15,17,17,18,18,19,19],"right_children":[2,4,-1,6,8,10,12,14,16,18,-1,-1,-1,-1,-1,20,-1,22,24,26,-1,-1,-1,-1,-1,-1,-1],"split_conditions":[5.805E3,1.53E1,2.87288E-1,5.684E1,1.2858E4,8.17E2,1.34E0,9.36757E2,9.3758E2,3.329E3,1.25748E-1,-9.33043E-2,2.0436132E-1,-3.462566E-2,-2.134587E-1,3.95606E3,2.6528156E-1,4.033E1,9.37511E2,1.3327E4,1.652903E-1,-8.23099E-2,-2.9068595E-1,-2.4929315E-1,2.225162E-1,-1.5455937E-1,-3.5706367E-3],"split_indices":[13,10,0,2,5,4,8,7,7,13,0,0,0,0,0,10,0,2,7,5,0,0,0,0,0,0,0],"split_type":[0,0,0,0,0,0,0,0,0,0,0,0,0,0,0,0,0,0,0,0,0,0,0,0,0,0,0],"sum_hessian":[6.1391712E1,3.917182E1,2.221989E1,2.8888588E1,1.0283235E1,2.6422806E1,2.4657822E0,3.6608214E0,6.6224136E0,2.537984E1,1.042964E0,1.0386391E0,1.4271431E0,1.2509047E0,2.4099166E0,3.1091292E0,3.5132842E0,1.7514023E1,7.8658195E0,2.0853379E0,1.0237913E0,1.0170474E0,1.6496975E1,4.8614106E0,3.0044088E0,1.0783218E0,1.0070162E0],"tree_param":{"num_deleted":"0","num_feature":"14","num_nodes":"27","size_leaf_vector":"1"}},{"base_weights":[9.054183E-2,-3.6523217E-1,2.831814E-1,-6.489107E-1,-3.5283178E-2,1.5476917E-1,-2.7820343E-1,-2.4688958E-1,5.614928E-1,-2.3372956E-1,1.6059205E-1,-2.8393859E-2,7.2049123E-1,-1.535238E-1,3.290284E-2,3.1359425E-1,2.8228348E-1,2.0302093E-1,-9.7724505E-2],"categories":[],"categories_nodes":[],"categories_segments":[],"categories_sizes":[],"default_left":[0,0,0,0,0,0,0,0,0,0,0,0,0,0,0,0,0,0,0],"id":21,"left_children":[1,3,-1,5,7,9,-1,-1,11,13,-1,-1,15,-1,-1,17,-1,-1,-1],"loss_changes":[1.978109E1,3.093483E0,0E0,4.13678E0,8.19456E0,9.306365E-1,0E0,0E0,1.1065793E0,3.7998757E-1,0E0,0E0,4.3402386E-1,0E0,0E0,1.2318085E0,0E0,0E0,0E0],"parents":[2147483647,0,0,1,1,3,3,4,4,5,5,8,8,9,9,12,12,15,15],"right_children":[2,4,-1,6,8,10,-1,-1,12,14,-1,-1,16,-1,-1,18,-1,-1,-1],"split_conditions":[5.805E3,9.3758E2,2.831814E-1,9.36668E2,1.2E0,5.2E1,-2.7820343E-1,-2.4688958E-1,9.37607E2,2.004E4,1.6059205E-1,-2.8393859E-2,1.91E1,-1.535238E-1,3.290284E-2,8.867E0,2.8228348E-1,2.0302093E-1,-9.7724505E-2],"split_indices":[13,7,0,7,8,13,0,0,7,6,0,0,1,0,0,1,0,0,0],"split_type":[0,0,0,0,0,0,0,0,0,0,0,0,0,0,0,0,0,0,0],"sum_hessian":[4.897055E1,3.229484E1,1.6675709E1,1.6845215E1,1.5449626E1,4.448649E0,1.2396566E1,6.496243E0,8.9533825E0,2.3921971E0,2.0564518E0,1.8253685E0,7.1280136E0,1.051063E0,1.3411341E0,3.356089E0,3.7719247E0,2.1030712E0,1.2530178E0],"tree_param":{"num_deleted":"0","num_feature":"14","num_nodes":"19","size_leaf_vector":"1"}},{"base_weights":[8.5579336E-2,-3.290736E-1,2.7800208E-1,-7.9356194E-1,-1.2769766E-1,-4.9472667E-2,-2.5839385E-1,-5.2105653E-1,5.9921974E-1,1.20403074E-1,-7.521376E-1,2.5314888E-1,2.4884851E-1,-2.0568252E-1,1.6563079E-1,3.375314E-2,-2.6736078E-1,-1.9044136E-1,2.1335812E-1,-1.1094142E-1,1.819679E-2],"categories":[],"categories_nodes":[],"categories_segments":[],"categories_sizes":[],"default_left":[0,0,0,0,0,0,0,0,0,0,0,0,0,0,0,0,0,0,0,0,0],"id":22,"left_children":[1,3,-1,5,7,-1,-1,9,11,13,15,17,-1,19,-1,-1,-1,-1,-1,-1,-1],"loss_changes":[1.4358158E1,2.4921637E0,0E0,2.0694494E-1,6.183536E0,0E0,0E0,2.1447875E0,4.0164232E-1,7.515662E-1,1.3419166E0,2.284039E0,0E0,1.6714087E-1,0E0,0E0,0E0,0E0,0E0,0E0,0E0],"parents":[2147483647,0,0,1,1,3,3,4,4,7,7,8,8,9,9,10,10,11,11,13,13],"right_children":[2,4,-1,6,8,-1,-1,10,12,14,16,18,-1,20,-1,-1,-1,-1,-1,-1,-1],"split_conditions":[5.805E3,1.11E0,2.7800208E-1,9.36712E2,9.37607E2,-4.9472667E-2,-2.5839385E-1,9.36668E2,2.016E4,5.2E1,5.2E1,3.209E3,2.4884851E-1,2.0062E4,1.6563079E-1,3.375314E-2,-2.6736078E-1,-1.9044136E-1,2.1335812E-1,-1.1094142E-1,1.819679E-2],"split_indices":[13,8,0,7,7,0,0,7,6,13,13,13,0,6,0,0,0,0,0,0,0],"split_type":[0,0,0,0,0,0,0,0,0,0,0,0,0,0,0,0,0,0,0,0,0],"sum_hessian":[3.929454E1,2.6727062E1,1.2567479E1,7.1936607E0,1.9533401E1,1.0339358E0,6.159725E0,1.2858462E1,6.6749396E0,3.532242E0,9.3262205E0,3.505702E0,3.1692376E0,2.3105288E0,1.2217134E0,1.3186085E0,8.007612E0,1.0616722E0,2.4440298E0,1.1892295E0,1.1212993E0],"tree_param":{"num_deleted":"0","num_feature":"14","num_nodes":"21","size_leaf_vector":"1"}},{"base_weights":[7.802386E-2,-2.9698724E-1,2.7156058E-1,-4.7585383E-1,2.2489688E-1,-8.011524E-1,1.5583084E-2,-4.0957677E-1,7.284788E-1,-1.9951318E-3,-2.6998594E-1,-2.1913892E-1,5.4917186E-1,-1.6150355E-1,-1.817243E-2,2.7328917E-1,2.7443416E-2,1.3832639E-2,2.2078301E-1],"categories":[],"categories_nodes":[],"categories_segments":[],"categories_sizes":[],"default_left":[0,0,0,0,0,0,0,0,0,0,0,0,0,0,0,0,0,0,0],"id":23,"left_children":[1,3,-1,5,7,9,11,13,15,-1,-1,-1,17,-1,-1,-1,-1,-1,-1],"loss_changes":[1.0482134E1,2.292024E0,0E0,2.850616E0,2.4243028E0,8.340521E-1,3.6064885E0,1.2847179E-1,3.8970685E-1,0E0,0E0,0E0,4.6077788E-1,0E0,0E0,0E0,0E0,0E0,0E0],"parents":[2147483647,0,0,1,1,3,3,4,4,5,5,6,6,7,7,8,8,12,12],"right_children":[2,4,-1,6,8,10,12,14,16,-1,-1,-1,18,-1,-1,-1,-1,-1,-1],"split_conditions":[5.805E3,4.54E2,2.7156058E-1,3.149E3,1.9937E4,9.36668E2,9.38819E2,2.355E1,3.1E1,-1.9951318E-3,-2.6998594E-1,-2.1913892E-1,3.209E3,-1.6150355E-1,-1.817243E-2,2.7328917E-1,2.7443416E-2,1.3832639E-2,2.2078301E-1],"split_indices":[13,4,0,13,6,7,7,1,3,0,0,0,13,0,0,0,0,0,0],"split_type":[0,0,0,0,0,0,0,0,0,0,0,0,0,0,0,0,0,0,0],"sum_hessian":[3.192479E1,2.2407187E1,9.517604E0,1.6753439E1,5.6537466E0,9.70148E0,7.051959E0,2.5843463E0,3.0694E0,1.1910459E0,8.510434E0,2.7867105E0,4.265249E0,1.4915091E0,1.0928371E0,2.0515876E0,1.0178126E0,1.492397E0,2.7728517E0],"tree_param":{"num_deleted":"0","num_feature":"14","num_nodes":"19","size_leaf_vector":"1"}},{"base_weights":[7.290298E-2,-2.6294243E-1,2.6373264E-1,-4.398471E-1,1.8526709E-1,-7.5301903E-1,1.5019547E-2,-3.5224178E-1,6.123182E-1,4.093629E-3,-2.622128E-1,-2.0493984E-1,4.923457E-1,-1.0651149E-2,-1.5958838E-1,2.3321277E-1,2.3084855E-2,1.13589745E-2,2.0719348E-1],"categories":[],"categories_nodes":[],"categories_segments":[],"categories_sizes":[],"default_left":[0,0,0,0,0,0,0,0,0,0,0,0,0,0,0,0,0,0,0],"id":24,"left_children":[1,3,-1,5,7,9,11,13,15,-1,-1,-1,17,-1,-1,-1,-1,-1,-1],"loss_changes":[7.6222734E0,1.6704615E0,0E0,2.1003723E0,1.6789888E0,8.1960297E-1,2.6558022E0,1.7791235E-1,2.86368E-1,0E0,0E0,0E0,3.9878535E-1,0E0,0E0,0E0,0E0,0E0,0E0],"parents":[2147483647,0,0,1,1,3,3,4,4,5,5,6,6,7,7,8,8,12,12],"right_children":[2,4,-1,6,8,10,12,14,16,-1,-1,-1,18,-1,-1,-1,-1,-1,-1],"split_conditions":[5.805E3,4.54E2,2.6373264E-1,3.149E3,1.9937E4,3.925E1,9.38819E2,9.36668E2,3.1E1,4.093629E-3,-2.622128E-1,-2.0493984E-1,3.209E3,-1.0651149E-2,-1.5958838E-1,2.3321277E-1,2.3084855E-2,1.13589745E-2,2.0719348E-1],"split_indices":[13,4,0,13,6,2,7,7,3,0,0,0,13,0,0,0,0,0,0],"split_type":[0,0,0,0,0,0,0,0,0,0,0,0,0,0,0,0,0,0,0],"sum_hessian":[2.6297625E1,1.9039919E1,7.257707E0,1.3665079E1,5.374839E0,7.7048683E0,5.960211E0,2.4572246E0,2.9176145E0,1.1714122E0,6.533456E0,2.2451775E0,3.7150333E0,1.3230428E0,1.1341817E0,1.8845555E0,1.033059E0,1.4903156E0,2.2247176E0],"tree_param":{"num_deleted":"0","num_feature":"14","num_nodes":"19","size_leaf_vector":"1"}},{"base_weights":[6.6414796E-2,-2.3163028E-1,2.544119E-1,-3.2966754E-1,1.324972E-1,-5.3923637E-1,1.17342055E-1,-7.4635905E-1,4.532755E-3,-2.5322095E-1,2.1938568E-1,7.3050424E-3,-2.643399E-1,-1.7642236E-1,1.7998528E-1,3.7093867E-2,-1.7959566E-1],"categories":[],"categories_nodes":[],"categories_segments":[],"categories_sizes":[],"default_left":[0,0,0,0,0,0,0,0,0,0,0,0,0,0,0,0,0],"id":25,"left_children":[1,3,-1,5,-1,7,9,11,13,15,-1,-1,-1,-1,-1,-1,-1],"loss_changes":[5.563166E0,1.2982981E0,0E0,1.5449233E0,0E0,1.2362697E0,1.5205255E0,8.4548855E-1,1.7689531E0,6.4722043E-1,0E0,0E0,0E0,0E0,0E0,0E0,0E0],"parents":[2147483647,0,0,1,1,3,3,5,5,6,6,7,7,8,8,9,9],"right_children":[2,4,-1,6,-1,8,10,12,14,16,-1,-1,-1,-1,-1,-1,-1],"split_conditions":[5.805E3,5.684E1,2.544119E-1,4.54E2,1.324972E-1,3.329E3,9.3758E2,9.36668E2,9.38819E2,9.36668E2,2.1938568E-1,7.3050424E-3,-2.643399E-1,-1.7642236E-1,1.7998528E-1,3.7093867E-2,-1.7959566E-1],"split_indices":[13,2,0,4,0,13,7,7,7,7,0,0,0,0,0,0,0],"split_type":[0,0,0,0,0,0,0,0,0,0,0,0,0,0,0,0,0],"sum_hessian":[2.2037205E1,1.64632E1,5.574005E0,1.481618E1,1.6470193E0,9.946638E0,4.869542E0,6.933202E0,3.0134363E0,3.4030719E0,1.4664704E0,1.1539011E0,5.7793007E0,1.5164645E0,1.4969718E0,1.9345362E0,1.4685357E0],"tree_param":{"num_deleted":"0","num_feature":"14","num_nodes":"17","size_leaf_vector":"1"}},{"base_weights":[6.374406E-2,-1.9954394E-1,2.4368484E-1,-4.3678418E-1,8.129507E-2,9.156582E-2,-2.416979E-1,-1.8988378E-1,3.8359207E-1,-2.2248916E-1,1.3853417E-1,-8.001369E-3,4.9369222E-1,-1.1509116E-1,1.5128588E-2,3.0106962E-2,2.0378385E-1],"categories":[],"categories_nodes":[],"categories_segments":[],"categories_sizes":[],"default_left":[0,0,0,0,0,0,0,0,0,0,0,0,0,0,0,0,0],"id":26,"left_children":[1,3,-1,5,7,9,-1,-1,11,13,-1,-1,15,-1,-1,-1,-1],"loss_changes":[4.045012E0,1.0601034E0,0E0,1.7290386E0,1.9452934E0,6.1312294E-1,0E0,0E0,2.9154617E-1,1.5347892E-1,0E0,0E0,2.902645E-1,0E0,0E0,0E0,0E0],"parents":[2147483647,0,0,1,1,3,3,4,4,5,5,8,8,9,9,12,12],"right_children":[2,4,-1,6,8,10,-1,-1,12,14,-1,-1,16,-1,-1,-1,-1],"split_conditions":[5.805E3,9.3758E2,2.4368484E-1,9.36668E2,1.11E0,5.2E1,-2.416979E-1,-1.8988378E-1,9.37607E2,2.0062E4,1.3853417E-1,-8.001369E-3,2.0155E4,-1.1509116E-1,1.5128588E-2,3.0106962E-2,2.0378385E-1],"split_indices":[13,7,0,7,8,13,0,0,7,6,0,0,6,0,0,0,0],"split_type":[0,0,0,0,0,0,0,0,0,0,0,0,0,0,0,0,0],"sum_hessian":[1.8702154E1,1.4378235E1,4.32392E0,7.4931087E0,6.885126E0,3.3897095E0,4.103399E0,1.7222219E0,5.1629043E0,2.0498438E0,1.3398658E0,1.2527119E0,3.9101923E0,1.0337589E0,1.0160848E0,1.7474275E0,2.1627648E0],"tree_param":{"num_deleted":"0","num_feature":"14","num_nodes":"17","size_leaf_vector":"1"}},{"base_weights":[5.5585336E-2,-1.7554854E-1,2.316948E-1,-5.3566045E-1,-7.898998E-3,3.6449032E-4,-2.1057922E-1,1.6776301E-1,-1.8358092E-1,-3.25934E-2,1.9195911E-1,-4.11711E-1,3.0151662E-1,-1.8746203E-1,3.9305654E-3,-1.6436419E-3,1.6959938E-1],"categories":[],"categories_nodes":[],"categories_segments":[],"categories_sizes":[],"default_left":[0,0,0,0,0,0,0,0,0,0,0,0,0,0,0,0,0],"id":27,"left_children":[1,3,-1,5,7,-1,-1,9,-1,11,-1,13,15,-1,-1,-1,-1],"loss_changes":[2.9924412E0,8.32222E-1,0E0,3.9239192E-1,1.2134527E0,0E0,0E0,8.622159E-1,0E0,1.0356678E0,0E0,3.5173374E-1,3.5965076E-1,0E0,0E0,0E0,0E0],"parents":[2147483647,0,0,1,1,3,3,4,4,7,7,9,9,11,11,12,12],"right_children":[2,4,-1,6,8,-1,-1,10,-1,12,-1,14,16,-1,-1,-1,-1],"split_conditions":[5.805E3,1.6547365E9,2.316948E-1,1.49E2,1.6551246E9,3.6449032E-4,-2.1057922E-1,1.33E2,-1.8358092E-1,2.0146E4,1.9195911E-1,1.252E1,2.45E2,-1.8746203E-1,3.9305654E-3,-1.6436419E-3,1.6959938E-1],"split_indices":[13,0,0,13,0,0,0,3,0,6,0,10,13,0,0,0,0],"split_type":[0,0,0,0,0,0,0,0,0,0,0,0,0,0,0,0,0],"sum_hessian":[1.6245258E1,1.285485E1,3.3904078E0,3.3861866E0,9.468663E0,1.0354575E0,2.3507292E0,7.894967E0,1.5736963E0,6.196271E0,1.6986958E0,2.793828E0,3.4024432E0,1.5467583E0,1.2470696E0,2.0251048E0,1.3773384E0],"tree_param":{"num_deleted":"0","num_feature":"14","num_nodes":"17","size_leaf_vector":"1"}},{"base_weights":[4.6381734E-2,-1.5741216E-1,2.18663E-1,-3.3235458E-1,1.6524269E-1,-2.1185638E-1,-5.741397E-2,-8.384598E-2,4.4637844E-1,-1.505763E-1,1.5760957E-1,3.6848113E-2,1.8458065E-1,-9.652967E-2,1.433853E-1,-6.604976E-2,1.508E-2],"categories":[],"categories_nodes":[],"categories_segments":[],"categories_sizes":[],"default_left":[0,0,0,0,0,0,0,0,0,0,0,0,0,0,0,0,0],"id":28,"left_children":[1,3,-1,5,7,-1,9,-1,11,-1,13,-1,-1,15,-1,-1,-1],"loss_changes":[2.2378182E0,7.648294E-1,0E0,8.3178633E-1,7.611058E-1,0E0,6.5057236E-1,0E0,1.1586964E-1,0E0,4.361529E-1,0E0,0E0,7.46505E-2,0E0,0E0,0E0],"parents":[2147483647,0,0,1,1,3,3,4,4,6,6,8,8,10,10,13,13],"right_children":[2,4,-1,6,8,-1,10,-1,12,-1,14,-1,-1,16,-1,-1,-1],"split_conditions":[5.805E3,4.54E2,2.18663E-1,1.3088E4,1.9937E4,-2.1185638E-1,1.11E0,-8.384598E-2,2.727E1,-1.505763E-1,9.39617E2,3.6848113E-2,1.8458065E-1,2.0189E4,1.433853E-1,-6.604976E-2,1.508E-2],"split_indices":[13,4,0,5,6,0,8,0,1,0,7,0,0,6,0,0,0],"split_type":[0,0,0,0,0,0,0,0,0,0,0,0,0,0,0,0,0],"sum_hessian":[1.4264292E1,1.1576801E1,2.6874907E0,7.4872026E0,4.089599E0,2.508252E0,4.9789505E0,1.5862201E0,2.503379E0,1.1882607E0,3.79069E0,1.4509616E0,1.0524174E0,2.5033512E0,1.2873387E0,1.0875661E0,1.4157851E0],"tree_param":{"num_deleted":"0","num_feature":"14","num_nodes":"17","size_leaf_vector":"1"}},{"base_weights":[4.2614337E-2,-1.337312E-1,2.0508619E-1,-2.3157862E-1,9.956671E-2,-2.0011938E-1,-4.8477616E-2,-1.4812471E-1,1.0993743E-1,-2.366907E-1,3.347202E-1,2.0380016E-2,-1.3028286E-1,1.5505616E-1,8.94158E-3],"categories":[],"categories_nodes":[],"categories_segments":[],"categories_sizes":[],"default_left":[0,0,0,0,0,0,0,0,0,0,0,0,0,0,0],"id":29,"left_children":[1,3,-1,5,-1,-1,7,-1,9,11,13,-1,-1,-1,-1],"loss_changes":[1.6614574E0,6.112332E-1,0E0,7.874738E-1,0E0,0E0,6.409036E-1,0E0,6.208963E-1,2.2936432E-1,2.4180228E-1,0E0,0E0,0E0,0E0],"parents":[2147483647,0,0,1,1,3,3,6,6,8,8,9,9,10,10],"right_children":[2,4,-1,6,-1,-1,8,-1,10,12,14,-1,-1,-1,-1],"split_conditions":[5.805E3,1.384E3,2.0508619E-1,1.2858E4,9.956671E-2,-2.0011938E-1,2.7E-2,-1.4812471E-1,9.3758E2,3.85E1,3.1E1,2.0380016E-2,-1.3028286E-1,1.5505616E-1,8.94158E-3],"split_indices":[13,4,0,5,0,0,12,0,7,2,3,0,0,0,0],"split_type":[0,0,0,0,0,0,0,0,0,0,0,0,0,0,0],"sum_hessian":[1.2889381E1,1.07291E1,2.1602817E0,9.281327E0,1.4477727E0,1.9648925E0,7.316435E0,1.364449E0,5.951986E0,2.3205645E0,3.6314213E0,1.1711485E0,1.149416E0,1.8382881E0,1.7931333E0],"tree_param":{"num_deleted":"0","num_feature":"14","num_nodes":"15","size_leaf_vector":"1"}},{"base_weights":[3.3004273E-2,-1.2087068E-1,1.9136263E-1,-2.0685078E-1,1.0925021E-1,-4.0630823E-1,1.12761244E-1,-5.768188E-1,2.2134308E-2,-9.6460626E-2,3.9202702E-1,1.4761596E-2,-2.267926E-1,1.5133157E-1,3.5323113E-2],"categories":[],"categories_nodes":[],"categories_segments":[],"categories_sizes":[],"default_left":[0,0,0,0,0,0,0,0,0,0,0,0,0,0,0],"id":30,"left_children":[1,3,-1,5,-1,7,9,11,-1,-1,13,-1,-1,-1,-1],"loss_changes":[1.2712251E0,5.3692764E-1,0E0,6.8583596E-1,0E0,5.663886E-1,6.888831E-1,5.7951856E-1,0E0,0E0,4.158318E-2,0E0,0E0,0E0,0E0],"parents":[2147483647,0,0,1,1,3,3,5,5,6,6,7,7,10,10],"right_children":[2,4,-1,6,-1,8,10,12,-1,-1,14,-1,-1,-1,-1],"split_conditions":[5.805E3,5.684E1,1.9136263E-1,4.54E2,1.0925021E-1,3.329E3,1.9937E4,3.925E1,2.2134308E-2,-9.6460626E-2,2.9E1,1.4761596E-2,-2.267926E-1,1.5133157E-1,3.5323113E-2],"split_indices":[13,2,0,4,0,13,6,2,0,0,3,0,0,0,0],"split_type":[0,0,0,0,0,0,0,0,0,0,0,0,0,0,0],"sum_hessian":[1.182977E1,1.0068568E1,1.7612016E0,9.039688E0,1.0288801E0,5.3990784E0,3.6406095E0,3.835399E0,1.5636795E0,1.3655821E0,2.2750275E0,1.0147883E0,2.8206105E0,1.0184952E0,1.2565323E0],"tree_param":{"num_deleted":"0","num_feature":"14","num_nodes":"15","size_leaf_vector":"1"}},{"base_weights":[3.989559E-2,-2.488339E-1,3.573196E-1,9.401709E-2,-5.113694E-1,-8.660976E-2,2.1102412E-1,1.0346962E-1,-5.4455273E-2,-9.776518E-3,-1.9943544E-1,-1.7413023E-1,1.2881953E-1],"categories":[],"categories_nodes":[],"categories_segments":[],"categories_sizes":[],"default_left":[0,0,0,0,0,0,0,0,0,0,0,0,0],"id":31,"left_children":[1,3,5,7,9,11,-1,-1,-1,-1,-1,-1,-1],"loss_changes":[1.173913E0,6.591571E-1,9.903881E-1,3.2451525E-1,2.721547E-1,1.1514376E0,0E0,0E0,0E0,0E0,0E0,0E0,0E0],"parents":[2147483647,0,0,1,1,2,2,3,3,4,4,5,5],"right_children":[2,4,6,8,10,12,-1,-1,-1,-1,-1,-1,-1],"split_conditions":[9.37607E2,9.36668E2,3.209E3,3.533E1,5.2E1,2.016E4,2.1102412E-1,1.0346962E-1,-5.4455273E-2,-9.776518E-3,-1.9943544E-1,-1.7413023E-1,1.2881953E-1],"split_indices":[7,7,13,2,13,6,0,0,0,0,0,0,0],"split_type":[0,0,0,0,0,0,0,0,0,0,0,0,0],"sum_hessian":[1.0838556E1,5.788976E0,5.0495806E0,2.788847E0,3.0001292E0,2.5405755E0,2.5090048E0,1.3279604E0,1.4608866E0,1.0222609E0,1.9778683E0,1.2343947E0,1.306181E0],"tree_param":{"num_deleted":"0","num_feature":"14","num_nodes":"13","size_leaf_vector":"1"}},{"base_weights":[3.153137E-2,-1.9549859E-1,3.5276115E-1,-1.6111122E-1,7.8153886E-2,-6.931945E-2,5.7349074E-1,-3.665886E-2,8.064551E-2,2.0584346E-1,4.5906555E-2],"categories":[],"categories_nodes":[],"categories_segments":[],"categories_sizes":[],"default_left":[0,0,0,0,0,0,0,0,0,0,0],"id":32,"left_children":[1,3,5,-1,7,-1,9,-1,-1,-1,-1],"loss_changes":[8.51295E-1,6.895429E-1,7.509081E-1,0E0,2.1313444E-1,0E0,7.3549986E-2,0E0,0E0,0E0,0E0],"parents":[2147483647,0,0,1,1,2,2,4,4,6,6],"right_children":[2,4,6,-1,8,-1,10,-1,-1,-1,-1],"split_conditions":[9.38675E2,2.24E0,1.3E0,-1.6111122E-1,2.031E4,-6.931945E-2,1.323E4,-3.665886E-2,8.064551E-2,2.0584346E-1,4.5906555E-2],"split_indices":[7,8,8,0,6,0,5,0,0,0,0],"split_type":[0,0,0,0,0,0,0,0,0,0,0],"sum_hessian":[9.727324E0,5.9286447E0,3.7986786E0,2.2090747E0,3.71957E0,1.0293205E0,2.7693582E0,1.9888211E0,1.7307487E0,1.685827E0,1.0835311E0],"tree_param":{"num_deleted":"0","num_feature":"14","num_nodes":"11","size_leaf_vector":"1"}},{"base_weights":[3.0790389E-2,-1.1429226E-1,1.6470289E-1,3.3453748E-1,-1.01487204E-1,-4.8097085E-2,5.303901E-1,2.1971159E-1,3.6639195E-2],"categories":[],"categories_nodes":[],"categories_segments":[],"categories_sizes":[],"default_left":[0,0,0,0,0,0,0,0,0],"id":33,"left_children":[1,-1,3,5,-1,-1,7,-1,-1],"loss_changes":[6.2321633E-1,0E0,8.2802635E-1,7.400823E-1,0E0,0E0,3.2899117E-1,0E0,0E0],"parents":[2147483647,0,0,2,2,3,3,6,6],"right_children":[2,-1,4,6,-1,-1,8,-1,-1],"split_conditions":[1.6547365E9,-1.1429226E-1,1.6551244E9,5.2E1,-1.01487204E-1,-4.8097085E-2,9.39551E2,2.1971159E-1,3.6639195E-2],"split_indices":[0,0,0,13,0,0,7,0,0],"split_type":[0,0,0,0,0,0,0,0,0],"sum_hessian":[9.164391E0,1.7962362E0,7.3681545E0,5.7586627E0,1.6094916E0,1.684313E0,4.07435E0,2.1946714E0,1.8796782E0],"tree_param":{"num_deleted":"0","num_feature":"14","num_nodes":"9","size_leaf_vector":"1"}},{"base_weights":[2.554658E-2,-2.0685436E-1,2.1892957E-1,9.403812E-2,-1.7145076E-1,-6.661318E-2,1.7738856E-1,9.2940524E-2,-4.1662917E-2,-1.21260755E-1,1.1823599E-1],"categories":[],"categories_nodes":[],"categories_segments":[],"categories_sizes":[],"default_left":[0,0,0,0,0,0,0,0,0,0,0],"id":34,"left_children":[1,3,5,7,-1,9,-1,-1,-1,-1,-1],"loss_changes":[4.725632E-1,5.839287E-1,6.427936E-1,2.1922845E-1,0E0,7.986812E-1,0E0,0E0,0E0,0E0,0E0],"parents":[2147483647,0,0,1,1,2,2,3,3,5,5],"right_children":[2,4,6,8,-1,10,-1,-1,-1,-1,-1],"split_conditions":[9.3758E2,9.36668E2,3.209E3,3.533E1,-1.7145076E-1,4.54E2,1.7738856E-1,9.2940524E-2,-4.1662917E-2,-1.21260755E-1,1.1823599E-1],"split_indices":[7,7,13,2,0,4,0,0,0,0,0],"split_type":[0,0,0,0,0,0,0,0,0,0,0],"sum_hessian":[8.507209E0,3.8321743E0,4.675035E0,2.5062413E0,1.325933E0,3.110729E0,1.5643059E0,1.1296576E0,1.3765836E0,1.8660963E0,1.2446327E0],"tree_param":{"num_deleted":"0","num_feature":"14","num_nodes":"11","size_leaf_vector":"1"}},{"base_weights":[2.534327E-2,-1.5229121E-1,2.4211071E-1,-3.836593E-1,1.0550195E-1,-6.577081E-2,1.632466E-1,-1.2144504E-2,-1.590744E-1,-4.6704434E-2,9.231072E-2,-6.0247507E-2,2.9434755E-2],"categories":[],"categories_nodes":[],"categories_segments":[],"categories_sizes":[],"default_left":[0,0,0,0,0,0,0,0,0,0,0,0,0],"id":35,"left_children":[1,3,5,7,9,11,-1,-1,-1,-1,-1,-1,-1],"loss_changes":[3.7838152E-1,3.6783603E-1,4.4316876E-1,1.3489321E-1,2.2642191E-1,8.746737E-2,0E0,0E0,0E0,0E0,0E0,0E0,0E0],"parents":[2147483647,0,0,1,1,2,2,3,3,4,4,5,5],"right_children":[2,4,6,8,10,12,-1,-1,-1,-1,-1,-1,-1],"split_conditions":[9.37607E2,4.56E2,3.209E3,9.36684E2,1.9937E4,1.6547635E9,1.632466E-1,-1.2144504E-2,-1.590744E-1,-4.6704434E-2,9.231072E-2,-6.0247507E-2,2.9434755E-2],"split_indices":[7,4,13,7,6,0,0,0,0,0,0,0,0],"split_type":[0,0,0,0,0,0,0,0,0,0,0,0,0],"sum_hessian":[7.8691573E0,4.48845E0,3.3807073E0,2.1081507E0,2.3802996E0,2.061558E0,1.3191493E0,1.0129348E0,1.0952158E0,1.1390485E0,1.2412511E0,1.0066322E0,1.0549259E0],"tree_param":{"num_deleted":"0","num_feature":"14","num_nodes":"13","size_leaf_vector":"1"}},{"base_weights":[1.9591564E-2,-8.574943E-2,1.2097176E-1,2.561757E-1,-8.053337E-2,-4.1622262E-2,4.4462642E-1,1.927627E-1,2.3246486E-2],"categories":[],"categories_nodes":[],"categories_segments":[],"categories_sizes":[],"default_left":[0,0,0,0,0,0,0,0,0],"id":36,"left_children":[1,-1,3,5,-1,-1,7,-1,-1],"loss_changes":[2.9681388E-1,0E0,4.4054228E-1,4.8984328E-1,0E0,0E0,2.5048196E-1,0E0,0E0],"parents":[2147483647,0,0,2,2,3,3,6,6],"right_children":[2,-1,4,6,-1,-1,8,-1,-1],"split_conditions":[1.6547365E9,-8.574943E-2,1.6551244E9,5.2E1,-8.053337E-2,-4.1622262E-2,9.39551E2,1.927627E-1,2.3246486E-2],"split_indices":[0,0,0,13,0,0,7,0,0],"split_type":[0,0,0,0,0,0,0,0,0],"sum_hessian":[7.469115E0,1.407976E0,6.0611386E0,4.7530513E0,1.3080875E0,1.6206356E0,3.1324155E0,1.5478611E0,1.5845544E0],"tree_param":{"num_deleted":"0","num_feature":"14","num_nodes":"9","size_leaf_vector":"1"}},{"base_weights":[1.7805593E-2,-1.6824031E-1,1.7710651E-1,-1.1674071E-1,4.855506E-2,-2.6046352E-2,1.4216082E-1,3.7422463E-2,-1.5754819E-2,8.882942E-2,-1.1485489E-1],"categories":[],"categories_nodes":[],"categories_segments":[],"categories_sizes":[],"default_left":[0,0,0,0,0,0,0,0,0,0,0],"id":37,"left_children":[1,3,5,-1,7,9,-1,-1,-1,-1,-1],"loss_changes":[2.692053E-1,2.2189751E-1,3.040736E-1,0E0,2.9870622E-2,5.5248797E-1,0E0,0E0,0E0,0E0,0E0],"parents":[2147483647,0,0,1,1,2,2,4,4,5,5],"right_children":[2,4,6,-1,8,10,-1,-1,-1,-1,-1],"split_conditions":[9.3758E2,2.49E0,3.209E3,-1.1674071E-1,3.85E1,3.1E1,1.4216082E-1,3.7422463E-2,-1.5754819E-2,8.882942E-2,-1.1485489E-1],"split_indices":[7,8,13,0,2,3,0,0,0,0,0],"split_type":[0,0,0,0,0,0,0,0,0,0,0],"sum_hessian":[7.077963E0,3.239024E0,3.8389387E0,1.2105923E0,2.0284317E0,2.8204172E0,1.0185215E0,1.0230615E0,1.00537E0,1.5716075E0,1.2488097E0],"tree_param":{"num_deleted":"0","num_feature":"14","num_nodes":"11","size_leaf_vector":"1"}},{"base_weights":[1.5733406E-2,-1.3749227E-1,1.9758356E-1,-1.0544489E-1,4.071127E-2,1.257165E-1,-2.2798706E-2],"categories":[],"categories_nodes":[],"categories_segments":[],"categories_sizes":[],"default_left":[0,0,0,0,0,0,0],"id":38,"left_children":[1,3,5,-1,-1,-1,-1],"loss_changes":[2.4302205E-1,3.279577E-1,2.71347E-1,0E0,0E0,0E0,0E0],"parents":[2147483647,0,0,1,1,2,2],"right_children":[2,4,6,-1,-1,-1,-1],"split_conditions":[4.54E2,3.149E3,5.6E-2,-1.0544489E-1,4.071127E-2,1.257165E-1,-2.2798706E-2],"split_indices":[4,13,12,0,0,0,0],"split_type":[0,0,0,0,0,0,0],"sum_hessian":[6.746733E0,3.793924E0,2.9528089E0,1.966801E0,1.827123E0,1.3379469E0,1.6148621E0],"tree_param":{"num_deleted":"0","num_feature":"14","num_nodes":"7","size_leaf_vector":"1"}},{"base_weights":[1.6029095E-2,-7.624387E-2,1.07743375E-1,2.2945897E-1,-7.201007E-2,2.4909804E-2,1.5342444E-1,-7.826228E-2,9.9490695E-2],"categories":[],"categories_nodes":[],"categories_segments":[],"categories_sizes":[],"default_left":[0,0,0,0,0,0,0,0,0],"id":39,"left_children":[1,-1,3,5,-1,7,-1,-1,-1],"loss_changes":[2.1570691E-1,0E0,3.2498705E-1,2.8915623E-1,0E0,4.4458622E-1,0E0,0E0,0E0],"parents":[2147483647,0,0,2,2,3,3,5,5],"right_children":[2,-1,4,6,-1,8,-1,-1,-1],"split_conditions":[1.6547365E9,-7.624387E-2,1.6551244E9,1.33E2,-7.201007E-2,2.016E4,1.5342444E-1,-7.826228E-2,9.9490695E-2],"split_indices":[0,0,0,3,0,6,0,0,0],"split_type":[0,0,0,0,0,0,0,0,0],"sum_hessian":[6.6001797E0,1.2238506E0,5.376329E0,4.2345324E0,1.1417968E0,3.0848944E0,1.1496377E0,1.6743491E0,1.4105455E0],"tree_param":{"num_deleted":"0","num_feature":"14","num_nodes":"9","size_leaf_vector":"1"}},{"base_weights":[1.6627463E-2,-1.5717559E-1,1.8320557E-1,-1.191769E-1,2.3583125E-2,1.0964405E-1,-2.1025531E-2],"categories":[],"categories_nodes":[],"categories_segments":[],"categories_sizes":[],"default_left":[0,0,0,0,0,0,0],"id":40,"left_children":[1,3,5,-1,-1,-1,-1],"loss_changes":[2.3900932E-1,2.628439E-1,2.181019E-1,0E0,0E0,0E0,0E0],"parents":[2147483647,0,0,1,1,2,2],"right_children":[2,4,6,-1,-1,-1,-1],"split_conditions":[2.24E0,9.38675E2,4.52E-1,-1.191769E-1,2.3583125E-2,1.0964405E-1,-2.1025531E-2],"split_indices":[8,7,12,0,0,0,0],"split_type":[0,0,0,0,0,0,0],"sum_hessian":[6.2608266E0,3.0915906E0,3.169236E0,1.1925261E0,1.8990647E0,1.5854076E0,1.5838284E0],"tree_param":{"num_deleted":"0","num_feature":"14","num_nodes":"7","size_leaf_vector":"1"}},{"base_weights":[1.0471926E-2,-1.4393799E-1,1.8776017E-1,-9.479097E-2,2.807158E-2,1.1030483E-1,-1.2242386E-2],"categories":[],"categories_nodes":[],"categories_segments":[],"categories_sizes":[],"default_left":[0,0,0,0,0,0,0],"id":41,"left_children":[1,3,5,-1,-1,-1,-1],"loss_changes":[2.2188736E-1,2.081474E-1,1.6912143E-1,0E0,0E0,0E0,0E0],"parents":[2147483647,0,0,1,1,2,2],"right_children":[2,4,6,-1,-1,-1,-1],"split_conditions":[4.54E2,3.149E3,5.6E-2,-9.479097E-2,2.807158E-2,1.1030483E-1,-1.2242386E-2],"split_indices":[4,13,12,0,0,0,0],"split_type":[0,0,0,0,0,0,0],"sum_hessian":[6.118213E0,3.3706474E0,2.7475657E0,1.7631955E0,1.6074518E0,1.1968236E0,1.5507421E0],"tree_param":{"num_deleted":"0","num_feature":"14","num_nodes":"7","size_leaf_vector":"1"}},{"base_weights":[1.1921812E-2,-1.4814751E-1,1.6267233E-1,-8.672234E-2,3.9248463E-2,9.094399E-2,-1.1202539E-2],"categories":[],"categories_nodes":[],"categories_segments":[],"categories_sizes":[],"default_left":[0,0,0,0,0,0,0],"id":42,"left_children":[1,3,5,-1,-1,-1,-1],"loss_changes":[1.9330062E-1,1.9210008E-1,1.261716E-1,0E0,0E0,0E0,0E0],"parents":[2147483647,0,0,1,1,2,2],"right_children":[2,4,6,-1,-1,-1,-1],"split_conditions":[1.535E1,1.49E2,4.52E-1,-8.672234E-2,3.9248463E-2,9.094399E-2,-1.1202539E-2],"split_indices":[10,3,12,0,0,0,0],"split_type":[0,0,0,0,0,0,0],"sum_hessian":[6.0119104E0,2.9242072E0,3.0877032E0,1.91874E0,1.0054673E0,1.5109228E0,1.5767806E0],"tree_param":{"num_deleted":"0","num_feature":"14","num_nodes":"7","size_leaf_vector":"1"}},{"base_weights":[1.2802059E-2,-7.445347E-2,1.02827094E-1,2.2796912E-1,-7.395621E-2,-1.4245015E-2,3.6303857E-1,1.6335317E-1,9.3550915E-3],"categories":[],"categories_nodes":[],"categories_segments":[],"categories_sizes":[],"default_left":[0,0,0,0,0,0,0,0,0],"id":43,"left_children":[1,-1,3,5,-1,-1,7,-1,-1],"loss_changes":[1.8784589E-1,0E0,3.116912E-1,1.9665343E-1,0E0,0E0,1.8484622E-1,0E0,0E0],"parents":[2147483647,0,0,2,2,3,3,6,6],"right_children":[2,-1,4,6,-1,-1,8,-1,-1],"split_conditions":[1.6547365E9,-7.445347E-2,1.6551244E9,5.2E1,-7.395621E-2,-1.4245015E-2,9.39551E2,1.6335317E-1,9.3550915E-3],"split_indices":[0,0,0,13,0,0,7,0,0],"split_type":[0,0,0,0,0,0,0,0,0],"sum_hessian":[5.9090486E0,1.0649672E0,4.8440814E0,3.8223112E0,1.0217701E0,1.4709651E0,2.351346E0,1.1058258E0,1.2455202E0],"tree_param":{"num_deleted":"0","num_feature":"14","num_nodes":"9","size_leaf_vector":"1"}},{"base_weights":[1.2294538E-2,-1.3358481E-1,1.459356E-1,-1.01799324E-1,2.0366307E-2,8.444245E-2,-1.3439107E-2],"categories":[],"categories_nodes":[],"categories_segments":[],"categories_sizes":[],"default_left":[0,0,0,0,0,0,0],"id":44,"left_children":[1,3,5,-1,-1,-1,-1],"loss_changes":[1.4944139E-1,1.7677909E-1,1.14893354E-1,0E0,0E0,0E0,0E0],"parents":[2147483647,0,0,1,1,2,2],"right_children":[2,4,6,-1,-1,-1,-1],"split_conditions":[2.24E0,9.38675E2,4.52E-1,-1.01799324E-1,2.0366307E-2,8.444245E-2,-1.3439107E-2],"split_indices":[8,7,12,0,0,0,0],"split_type":[0,0,0,0,0,0,0],"sum_hessian":[5.6654778E0,2.7089138E0,2.9565642E0,1.001705E0,1.7072088E0,1.4502355E0,1.5063287E0],"tree_param":{"num_deleted":"0","num_feature":"14","num_nodes":"7","size_leaf_vector":"1"}},{"base_weights":[6.9867293E-3,-8.317268E-2,7.612809E-2,7.5533845E-2,-7.352568E-2,-7.3861554E-2,1.065572E-1],"categories":[],"categories_nodes":[],"categories_segments":[],"categories_sizes":[],"default_left":[0,0,0,0,0,0,0],"id":45,"left_children":[1,3,-1,5,-1,-1,-1],"loss_changes":[1.673827E-1,1.6160193E-1,0E0,4.0924773E-1,0E0,0E0,0E0],"parents":[2147483647,0,0,1,1,3,3],"right_children":[2,4,-1,6,-1,-1,-1],"split_conditions":[1.18E3,3.1E1,7.612809E-2,2.031E4,-7.352568E-2,-7.3861554E-2,1.065572E-1],"split_indices":[4,3,0,6,0,0,0],"split_type":[0,0,0,0,0,0,0],"sum_hessian":[5.574545E0,4.5684195E0,1.0061255E0,2.5764663E0,1.9919531E0,1.2537134E0,1.322753E0],"tree_param":{"num_deleted":"0","num_feature":"14","num_nodes":"7","size_leaf_vector":"1"}},{"base_weights":[1.0601808E-2,-5.942272E-2,9.937E-2,2.0524688E-1,-4.9466092E-2,-1.544116E-2,1.0536692E-1],"categories":[],"categories_nodes":[],"categories_segments":[],"categories_sizes":[],"default_left":[0,0,0,0,0,0,0],"id":46,"left_children":[1,-1,3,5,-1,-1,-1],"loss_changes":[1.3890886E-1,0E0,1.7881213E-1,1.7340083E-1,0E0,0E0,0E0],"parents":[2147483647,0,0,2,2,3,3],"right_children":[2,-1,4,6,-1,-1,-1],"split_conditions":[1.6547368E9,-5.942272E-2,1.6549039E9,5.2E1,-4.9466092E-2,-1.544116E-2,1.0536692E-1],"split_indices":[0,0,0,13,0,0,0],"split_type":[0,0,0,0,0,0,0],"sum_hessian":[5.436329E0,1.2549031E0,4.181426E0,3.144757E0,1.0366689E0,1.3746562E0,1.7701007E0],"tree_param":{"num_deleted":"0","num_feature":"14","num_nodes":"7","size_leaf_vector":"1"}},{"base_weights":[5.176235E-3,-6.2159464E-2,9.094702E-2,-3.849649E-2,2.340038E-1,1.0644257E-2,1.0801294E-1],"categories":[],"categories_nodes":[],"categories_segments":[],"categories_sizes":[],"default_left":[0,0,0,0,0,0,0],"id":47,"left_children":[1,-1,3,-1,5,-1,-1],"loss_changes":[1.3359411E-1,0E0,1.9258428E-1,0E0,7.455894E-2,0E0,0E0],"parents":[2147483647,0,0,2,2,4,4],"right_children":[2,-1,4,-1,6,-1,-1],"split_conditions":[1.2858E4,-6.2159464E-2,1.332E1,-3.849649E-2,2.8E1,1.0644257E-2,1.0801294E-1],"split_indices":[5,0,10,0,3,0,0],"split_type":[0,0,0,0,0,0,0],"sum_hessian":[5.2995744E0,1.1173121E0,4.1822624E0,1.691949E0,2.4903135E0,1.4647347E0,1.0255789E0],"tree_param":{"num_deleted":"0","num_feature":"14","num_nodes":"7","size_leaf_vector":"1"}},{"base_weights":[6.658953E-3,-9.351694E-2,4.4523224E-2,-2.1800335E-1,3.68259E-2,-9.622462E-2,-1.3215478E-3],"categories":[],"categories_nodes":[],"categories_segments":[],"categories_sizes":[],"default_left":[0,0,0,0,0,0,0],"id":48,"left_children":[1,3,-1,5,-1,-1,-1],"loss_changes":[1.02011524E-1,1.4118151E-1,0E0,6.568986E-2,0E0,0E0,0E0],"parents":[2147483647,0,0,1,1,3,3],"right_children":[2,4,-1,6,-1,-1,-1],"split_conditions":[4.56E2,1.3327E4,4.4523224E-2,2.774E3,3.68259E-2,-9.622462E-2,-1.3215478E-3],"split_indices":[4,5,0,13,0,0,0],"split_type":[0,0,0,0,0,0,0],"sum_hessian":[5.2064724E0,3.2499862E0,1.9564862E0,2.0576017E0,1.1923844E0,1.0505967E0,1.007005E0],"tree_param":{"num_deleted":"0","num_feature":"14","num_nodes":"7","size_leaf_vector":"1"}},{"base_weights":[1.697977E-3,-5.4505624E-2,7.636952E-2,-5.666026E-2,7.379961E-2,-6.0975466E-2,3.1483278E-2],"categories":[],"categories_nodes":[],"categories_segments":[],"categories_sizes":[],"default_left":[0,0,0,0,0,0,0],"id":49,"left_children":[1,-1,3,5,-1,-1,-1],"loss_changes":[9.774669E-2,0E0,1.2804514E-1,1.0772332E-1,0E0,0E0,0E0],"parents":[2147483647,0,0,2,2,3,3],"right_children":[2,-1,4,6,-1,-1,-1],"split_conditions":[1.2858E4,-5.4505624E-2,4.51E2,3.149E3,7.379961E-2,-6.0975466E-2,3.1483278E-2],"split_indices":[5,0,4,13,0,0,0],"split_type":[0,0,0,0,0,0,0],"sum_hessian":[5.1249022E0,1.0682627E0,4.056639E0,2.6468515E0,1.4097878E0,1.2527626E0,1.3940891E0],"tree_param":{"num_deleted":"0","num_feature":"14","num_nodes":"7","size_leaf_vector":"1"}},{"base_weights":[-5.0311553E-4,5.4529663E-2,-8.018245E-2,-2.1893151E-1,4.9988087E-2,-1.20886035E-1,1.7555606E-2],"categories":[],"categories_nodes":[],"categories_segments":[],"categories_sizes":[],"default_left":[0,0,0,0,0,0,0],"id":50,"left_children":[1,-1,3,5,-1,-1,-1],"loss_changes":[1.02362104E-1,0E0,2.0427606E-1,2.0579167E-1,0E0,0E0,0E0],"parents":[2147483647,0,0,2,2,3,3],"right_children":[2,-1,4,6,-1,-1,-1],"split_conditions":[3.533E1,5.4529663E-2,3.149E3,4.56E2,4.9988087E-2,-1.20886035E-1,1.7555606E-2],"split_indices":[2,0,13,4,0,0,0],"split_type":[0,0,0,0,0,0,0],"sum_hessian":[5.044717E0,1.1447825E0,3.8999343E0,2.568789E0,1.3311454E0,1.2724663E0,1.2963226E0],"tree_param":{"num_deleted":"0","num_feature":"14","num_nodes":"7","size_leaf_vector":"1"}},{"base_weights":[-8.605838E-4,-5.333555E-2,8.055585E-2,6.774345E-2,-7.41365E-2,7.4594556E-3,-4.064536E-2],"categories":[],"categories_nodes":[],"categories_segments":[],"categories_sizes":[],"default_left":[0,0,0,0,0,0,0],"id":51,"left_children":[1,-1,3,-1,5,-1,-1],"loss_changes":[9.959371E-2,0E0,1.2330109E-1,0E0,2.18895E-2,0E0,0E0],"parents":[2147483647,0,0,2,2,4,4],"right_children":[2,-1,4,-1,6,-1,-1],"split_conditions":[1.91E1,-5.333555E-2,5.6E-2,6.774345E-2,4.284E1,7.4594556E-3,-4.064536E-2],"split_indices":[1,0,12,0,2,0,0],"split_type":[0,0,0,0,0,0,0],"sum_hessian":[4.919794E0,1.1774489E0,3.742345E0,1.6929368E0,2.0494082E0,1.0116056E0,1.0378026E0],"tree_param":{"num_deleted":"0","num_feature":"14","num_nodes":"7","size_leaf_vector":"1"}},{"base_weights":[-3.8030986E-3,-1.00111455E-1,3.891435E-2,2.7219554E-2,-9.0819955E-2],"categories":[],"categories_nodes":[],"categories_segments":[],"categories_sizes":[],"default_left":[0,0,0,0,0],"id":52,"left_children":[1,3,-1,-1,-1],"loss_changes":[8.8527754E-2,1.8126617E-1,0E0,0E0,0E0],"parents":[2147483647,0,0,1,1],"right_children":[2,4,-1,-1,-1],"split_conditions":[9.37607E2,9.36668E2,3.891435E-2,2.7219554E-2,-9.0819955E-2],"split_indices":[7,7,0,0,0],"split_type":[0,0,0,0,0],"sum_hessian":[4.8746924E0,2.9773111E0,1.8973813E0,1.8175892E0,1.1597219E0],"tree_param":{"num_deleted":"0","num_feature":"14","num_nodes":"5","size_leaf_vector":"1"}},{"base_weights":[-7.4203676E-3,-1.2664293E-1,1.0796083E-1,-8.664324E-2,2.4332736E-2,7.604603E-2,-2.2922259E-2],"categories":[],"categories_nodes":[],"categories_segments":[],"categories_sizes":[],"default_left":[0,0,0,0,0,0,0],"id":53,"left_children":[1,3,5,-1,-1,-1,-1],"loss_changes":[9.334103E-2,1.3489208E-1,1.1281842E-1,0E0,0E0,0E0,0E0],"parents":[2147483647,0,0,1,1,2,2],"right_children":[2,4,6,-1,-1,-1,-1],"split_conditions":[2.016E4,1.255E1,2.0496E4,-8.664324E-2,2.4332736E-2,7.604603E-2,-2.2922259E-2],"split_indices":[6,10,6,0,0,0,0],"split_type":[0,0,0,0,0,0,0],"sum_hessian":[4.7915325E0,2.308535E0,2.4829974E0,1.0773796E0,1.2311555E0,1.1781584E0,1.3048389E0],"tree_param":{"num_deleted":"0","num_feature":"14","num_nodes":"7","size_leaf_vector":"1"}},{"base_weights":[-6.933474E-3,-1.299658E-1,1.1958399E-1,-6.688435E-2,1.0763904E-2,-1.8973194E-2,6.860312E-2],"categories":[],"categories_nodes":[],"categories_segments":[],"categories_sizes":[],"default_left":[0,0,0,0,0,0,0],"id":54,"left_children":[1,3,5,-1,-1,-1,-1],"loss_changes":[1.0430956E-1,5.9973076E-2,8.092728E-2,0E0,0E0,0E0,0E0],"parents":[2147483647,0,0,1,1,2,2],"right_children":[2,4,6,-1,-1,-1,-1],"split_conditions":[9.3758E2,6.77E2,2.016E4,-6.688435E-2,1.0763904E-2,-1.8973194E-2,6.860312E-2],"split_indices":[7,4,6,0,0,0,0],"split_type":[0,0,0,0,0,0,0],"sum_hessian":[4.7027645E0,2.3704026E0,2.332362E0,1.2982324E0,1.0721701E0,1.0286809E0,1.3036809E0],"tree_param":{"num_deleted":"0","num_feature":"14","num_nodes":"7","size_leaf_vector":"1"}},{"base_weights":[-6.0621044E-3,-1.0868633E-1,9.930471E-2,-5.624287E-2,9.101764E-3,-1.3885794E-2,6.1249208E-2],"categories":[],"categories_nodes":[],"categories_segments":[],"categories_sizes":[],"default_left":[0,0,0,0,0,0,0],"id":55,"left_children":[1,3,5,-1,-1,-1,-1],"loss_changes":[7.200078E-2,4.2328387E-2,6.0065642E-2,0E0,0E0,0E0,0E0],"parents":[2147483647,0,0,1,1,2,2],"right_children":[2,4,6,-1,-1,-1,-1],"split_conditions":[9.3758E2,6.77E2,3.149E3,-5.624287E-2,9.101764E-3,-1.3885794E-2,6.1249208E-2],"split_indices":[7,4,13,0,0,0,0],"split_type":[0,0,0,0,0,0,0],"sum_hessian":[4.6604695E0,2.3450015E0,2.3154678E0,1.2743102E0,1.0706913E0,1.2033207E0,1.1121471E0],"tree_param":{"num_deleted":"0","num_feature":"14","num_nodes":"7","size_leaf_vector":"1"}},{"base_weights":[-4.24418E-3,4.9295362E-2,-7.966541E-2,-1.8603547E-1,3.61674E-2,-1.06629446E-1,1.7670415E-2],"categories":[],"categories_nodes":[],"categories_segments":[],"categories_sizes":[],"default_left":[0,0,0,0,0,0,0],"id":56,"left_children":[1,-1,3,5,-1,-1,-1],"loss_changes":[8.4436744E-2,0E0,1.1934734E-1,1.605568E-1,0E0,0E0,0E0],"parents":[2147483647,0,0,2,2,3,3],"right_children":[2,-1,4,6,-1,-1,-1],"split_conditions":[3.533E1,4.9295362E-2,3.149E3,4.56E2,3.61674E-2,-1.06629446E-1,1.7670415E-2],"split_indices":[2,0,13,4,0,0,0],"split_type":[0,0,0,0,0,0,0],"sum_hessian":[4.6120048E0,1.0613285E0,3.550676E0,2.3650746E0,1.1856016E0,1.1314558E0,1.2336187E0],"tree_param":{"num_deleted":"0","num_feature":"14","num_nodes":"7","size_leaf_vector":"1"}},{"base_weights":[-4.217348E-3,-1.2620495E-1,1.1459834E-1,-8.059676E-2,2.7534679E-2,7.0369825E-2,-1.3976336E-2],"categories":[],"categories_nodes":[],"categories_segments":[],"categories_sizes":[],"default_left":[0,0,0,0,0,0,0],"id":57,"left_children":[1,3,5,-1,-1,-1,-1],"loss_changes":[9.447156E-2,1.2401329E-1,7.513705E-2,0E0,0E0,0E0,0E0],"parents":[2147483647,0,0,1,1,2,2],"right_children":[2,4,6,-1,-1,-1,-1],"split_conditions":[2.016E4,6.7E1,2.0496E4,-8.059676E-2,2.7534679E-2,7.0369825E-2,-1.3976336E-2],"split_indices":[6,3,6,0,0,0,0],"split_type":[0,0,0,0,0,0,0],"sum_hessian":[4.520108E0,2.1995983E0,2.32051E0,1.1897067E0,1.0098916E0,1.0693579E0,1.251152E0],"tree_param":{"num_deleted":"0","num_feature":"14","num_nodes":"7","size_leaf_vector":"1"}},{"base_weights":[-2.4048234E-3,1.1017476E-1,-4.0460326E-2,-3.7049193E-2,9.5627956E-2],"categories":[],"categories_nodes":[],"categories_segments":[],"categories_sizes":[],"default_left":[0,0,0,0,0],"id":58,"left_children":[1,3,-1,-1,-1],"loss_changes":[9.615014E-2,2.098177E-1,0E0,0E0,0E0],"parents":[2147483647,0,0,1,1],"right_children":[2,4,-1,-1,-1],"split_conditions":[3.1E1,2.031E4,-4.0460326E-2,-3.7049193E-2,9.5627956E-2],"split_indices":[3,6,0,0,0],"split_type":[0,0,0,0,0],"sum_hessian":[4.4511623E0,2.4971266E0,1.9540358E0,1.370133E0,1.1269935E0],"tree_param":{"num_deleted":"0","num_feature":"14","num_nodes":"5","size_leaf_vector":"1"}},{"base_weights":[2.0009044E-3,-4.6945557E-2,7.543796E-2,5.790848E-2,-1.5756026E-2],"categories":[],"categories_nodes":[],"categories_segments":[],"categories_sizes":[],"default_left":[0,0,0,0,0],"id":59,"left_children":[1,-1,3,-1,-1],"loss_changes":[7.455569E-2,0E0,7.572712E-2,0E0,0E0],"parents":[2147483647,0,0,2,2],"right_children":[2,-1,4,-1,-1],"split_conditions":[1.91E1,-4.6945557E-2,5.6E-2,5.790848E-2,-1.5756026E-2],"split_indices":[1,0,12,0,0],"split_type":[0,0,0,0,0],"sum_hessian":[4.3915367E0,1.0324688E0,3.359068E0,1.4854491E0,1.873619E0],"tree_param":{"num_deleted":"0","num_feature":"14","num_nodes":"5","size_leaf_vector":"1"}},{"base_weights":[4.899751E-4,-3.3854064E-2,1.00072294E-1,6.265115E-2,-1.2811424E-2],"categories":[],"categories_nodes":[],"categories_segments":[],"categories_sizes":[],"default_left":[0,0,0,0,0],"id":60,"left_children":[1,-1,3,-1,-1],"loss_changes":[7.183986E-2,0E0,6.1493557E-2,0E0,0E0],"parents":[2147483647,0,0,2,2],"right_children":[2,-1,4,-1,-1],"split_conditions":[2.2E0,-3.3854064E-2,4.52E-1,6.265115E-2,-1.2811424E-2],"split_indices":[8,0,12,0,0],"split_type":[0,0,0,0,0],"sum_hessian":[4.3646245E0,1.9790368E0,2.3855877E0,1.0914565E0,1.2941312E0],"tree_param":{"num_deleted":"0","num_feature":"14","num_nodes":"5","size_leaf_vector":"1"}},{"base_weights":[3.4906801E-3,-7.7774815E-2,3.455076E-2,3.0424701E-2,-8.368759E-2],"categories":[],"categories_nodes":[],"categories_segments":[],"categories_sizes":[],"default_left":[0,0,0,0,0],"id":61,"left_children":[1,3,-1,-1,-1],"loss_changes":[5.741063E-2,1.6121171E-1,0E0,0E0,0E0],"parents":[2147483647,0,0,1,1],"right_children":[2,4,-1,-1,-1],"split_conditions":[9.37607E2,9.36668E2,3.455076E-2,3.0424701E-2,-8.368759E-2],"split_indices":[7,7,0,0,0],"split_type":[0,0,0,0,0],"sum_hessian":[4.3388557E0,2.6871045E0,1.6517516E0,1.6835262E0,1.0035783E0],"tree_param":{"num_deleted":"0","num_feature":"14","num_nodes":"5","size_leaf_vector":"1"}},{"base_weights":[-1.4537234E-3,-9.752803E-2,3.1361718E-2,-5.85612E-2,1.2028575E-2],"categories":[],"categories_nodes":[],"categories_segments":[],"categories_sizes":[],"default_left":[0,0,0,0,0],"id":62,"left_children":[1,3,-1,-1,-1],"loss_changes":[6.386687E-2,5.1944934E-2,0E0,0E0,0E0],"parents":[2147483647,0,0,1,1],"right_children":[2,4,-1,-1,-1],"split_conditions":[4.51E2,4.712E1,3.1361718E-2,-5.85612E-2,1.2028575E-2],"split_indices":[4,2,0,0,0],"split_type":[0,0,0,0,0],"sum_hessian":[4.2705894E0,2.2819963E0,1.9885929E0,1.0899956E0,1.1920007E0],"tree_param":{"num_deleted":"0","num_feature":"14","num_nodes":"5","size_leaf_vector":"1"}},{"base_weights":[-3.972395E-3,8.529818E-2,-3.227639E-2,-3.2631405E-2,8.058892E-2],"categories":[],"categories_nodes":[],"categories_segments":[],"categories_sizes":[],"default_left":[0,0,0,0,0],"id":63,"left_children":[1,3,-1,-1,-1],"loss_changes":[5.7694394E-2,1.4931396E-1,0E0,0E0,0E0],"parents":[2147483647,0,0,1,1],"right_children":[2,4,-1,-1,-1],"split_conditions":[3.1E1,2.031E4,-3.227639E-2,-3.2631405E-2,8.058892E-2],"split_indices":[3,6,0,0,0],"split_type":[0,0,0,0,0],"sum_hessian":[4.2452197E0,2.3754334E0,1.8697861E0,1.3514857E0,1.0239478E0],"tree_param":{"num_deleted":"0","num_feature":"14","num_nodes":"5","size_leaf_vector":"1"}},{"base_weights":[3.7984698E-4,-3.026207E-2,7.458379E-2,-1.6188864E-2,5.909765E-2],"categories":[],"categories_nodes":[],"categories_segments":[],"categories_sizes":[],"default_left":[0,0,0,0,0],"id":64,"left_children":[1,-1,3,-1,-1],"loss_changes":[4.6620205E-2,0E0,6.692794E-2,0E0,0E0],"parents":[2147483647,0,0,2,2],"right_children":[2,-1,4,-1,-1],"split_conditions":[1.6547648E9,-3.026207E-2,5.2E1,-1.6188864E-2,5.909765E-2],"split_indices":[0,0,13,0,0],"split_type":[0,0,0,0,0],"sum_hessian":[4.203591E0,1.6257706E0,2.5778203E0,1.5301238E0,1.0476965E0],"tree_param":{"num_deleted":"0","num_feature":"14","num_nodes":"5","size_leaf_vector":"1"}},{"base_weights":[2.8457039E-3,-8.696506E-2,9.405573E-2,-5.370731E-2,1.5590001E-2,-1.2788602E-2,5.5026818E-2],"categories":[],"categories_nodes":[],"categories_segments":[],"categories_sizes":[],"default_left":[0,0,0,0,0,0,0],"id":65,"left_children":[1,3,5,-1,-1,-1,-1],"loss_changes":[5.0564244E-2,4.9293034E-2,4.5044333E-2,0E0,0E0,0E0,0E0],"parents":[2147483647,0,0,1,1,2,2],"right_children":[2,4,6,-1,-1,-1,-1],"split_conditions":[9.3758E2,7.07E2,3.149E3,-5.370731E-2,1.5590001E-2,-1.2788602E-2,5.5026818E-2],"split_indices":[7,4,13,0,0,0,0],"split_type":[0,0,0,0,0,0,0],"sum_hessian":[4.1741376E0,2.1266518E0,2.0474858E0,1.1055268E0,1.0211248E0,1.0162113E0,1.0312747E0],"tree_param":{"num_deleted":"0","num_feature":"14","num_nodes":"7","size_leaf_vector":"1"}},{"base_weights":[2.8071816E-3,9.1213025E-2,-3.0960787E-2,-2.4851108E-2,7.386905E-2],"categories":[],"categories_nodes":[],"categories_segments":[],"categories_sizes":[],"default_left":[0,0,0,0,0],"id":66,"left_children":[1,3,-1,-1,-1],"loss_changes":[5.752618E-2,1.1024623E-1,0E0,0E0,0E0],"parents":[2147483647,0,0,1,1],"right_children":[2,4,-1,-1,-1],"split_conditions":[3.1E1,2.031E4,-3.0960787E-2,-2.4851108E-2,7.386905E-2],"split_indices":[3,6,0,0,0],"split_type":[0,0,0,0,0],"sum_hessian":[4.1337323E0,2.330126E0,1.8036066E0,1.3170245E0,1.0131015E0],"tree_param":{"num_deleted":"0","num_feature":"14","num_nodes":"5","size_leaf_vector":"1"}},{"base_weights":[5.7301507E-3,-2.6869094E-2,8.831896E-2,3.6570232E-2,3.327502E-3],"categories":[],"categories_nodes":[],"categories_segments":[],"categories_sizes":[],"default_left":[0,0,0,0,0],"id":67,"left_children":[1,-1,3,-1,-1],"loss_changes":[4.8048895E-2,0E0,7.039422E-3,0E0,0E0],"parents":[2147483647,0,0,2,2],"right_children":[2,-1,4,-1,-1],"split_conditions":[2.2E0,-2.6869094E-2,4.59E2,3.6570232E-2,3.327502E-3],"split_indices":[8,0,4,0,0],"split_type":[0,0,0,0,0],"sum_hessian":[4.100089E0,1.8644129E0,2.235676E0,1.1549749E0,1.0807012E0],"tree_param":{"num_deleted":"0","num_feature":"14","num_nodes":"5","size_leaf_vector":"1"}},{"base_weights":[6.5622446E-3,-6.8836674E-2,3.181377E-2,-5.524366E-2,1.7010204E-2],"categories":[],"categories_nodes":[],"categories_segments":[],"categories_sizes":[],"default_left":[0,0,0,0,0],"id":68,"left_children":[1,3,-1,-1,-1],"loss_changes":[4.545232E-2,6.1102778E-2,0E0,0E0,0E0],"parents":[2147483647,0,0,1,1],"right_children":[2,4,-1,-1,-1],"split_conditions":[9.37607E2,7.74E0,3.181377E-2,-5.524366E-2,1.7010204E-2],"split_indices":[7,9,0,0,0],"split_type":[0,0,0,0,0],"sum_hessian":[4.086345E0,2.4998004E0,1.586545E0,1.0596396E0,1.4401609E0],"tree_param":{"num_deleted":"0","num_feature":"14","num_nodes":"5","size_leaf_vector":"1"}},{"base_weights":[3.2567652E-3,-8.068255E-2,2.82268E-2,-5.3894114E-2,1.4775707E-2],"categories":[],"categories_nodes":[],"categories_segments":[],"categories_sizes":[],"default_left":[0,0,0,0,0],"id":69,"left_children":[1,3,-1,-1,-1],"loss_changes":[4.6123E-2,4.9544975E-2,0E0,0E0,0E0],"parents":[2147483647,0,0,1,1],"right_children":[2,4,-1,-1,-1],"split_conditions":[4.51E2,4.702E1,2.82268E-2,-5.3894114E-2,1.4775707E-2],"split_indices":[4,2,0,0,0],"split_type":[0,0,0,0,0],"sum_hessian":[4.053712E0,2.1648736E0,1.888838E0,1.011713E0,1.1531606E0],"tree_param":{"num_deleted":"0","num_feature":"14","num_nodes":"5","size_leaf_vector":"1"}},{"base_weights":[5.827073E-5,-6.6312E-2,3.3894815E-2,-4.851299E-2,1.7282814E-2],"categories":[],"categories_nodes":[],"categories_segments":[],"categories_sizes":[],"default_left":[0,0,0,0,0],"id":70,"left_children":[1,3,-1,-1,-1],"loss_changes":[4.520463E-2,5.4230902E-2,0E0,0E0,0E0],"parents":[2147483647,0,0,1,1],"right_children":[2,4,-1,-1,-1],"split_conditions":[2.355E1,9.3758E2,3.3894815E-2,-4.851299E-2,1.7282814E-2],"split_indices":[1,7,0,0,0],"split_type":[0,0,0,0,0],"sum_hessian":[4.031807E0,2.7993128E0,1.2324941E0,1.4093883E0,1.3899245E0],"tree_param":{"num_deleted":"0","num_feature":"14","num_nodes":"5","size_leaf_vector":"1"}},{"base_weights":[5.6372164E-4,3.4375053E-2,-8.504983E-2,-6.505118E-2,2.1648677E-2],"categories":[],"categories_nodes":[],"categories_segments":[],"categories_sizes":[],"default_left":[0,0,0,0,0],"id":71,"left_children":[1,-1,3,-1,-1],"loss_changes":[5.8677517E-2,0E0,8.685631E-2,0E0,0E0],"parents":[2147483647,0,0,2,2],"right_children":[2,-1,4,-1,-1],"split_conditions":[9.36668E2,3.4375053E-2,9.38675E2,-6.505118E-2,2.1648677E-2],"split_indices":[7,0,7,0,0],"split_type":[0,0,0,0,0],"sum_hessian":[4.0127044E0,1.5757484E0,2.4369562E0,1.1193575E0,1.3175986E0],"tree_param":{"num_deleted":"0","num_feature":"14","num_nodes":"5","size_leaf_vector":"1"}},{"base_weights":[-1.6500213E-3,-2.8669626E-2,8.187908E-2,3.8475852E-2,-1.9578116E-3],"categories":[],"categories_nodes":[],"categories_segments":[],"categories_sizes":[],"default_left":[0,0,0,0,0],"id":72,"left_children":[1,-1,3,-1,-1],"loss_changes":[4.6766162E-2,0E0,1.3816033E-2,0E0,0E0],"parents":[2147483647,0,0,2,2],"right_children":[2,-1,4,-1,-1],"split_conditions":[2.2E0,-2.8669626E-2,4.59E2,3.8475852E-2,-1.9578116E-3],"split_indices":[8,0,4,0,0],"split_type":[0,0,0,0,0],"sum_hessian":[3.9640532E0,1.798182E0,2.1658711E0,1.1250011E0,1.0408702E0],"tree_param":{"num_deleted":"0","num_feature":"14","num_nodes":"5","size_leaf_vector":"1"}},{"base_weights":[4.1843246E-4,-2.8829396E-2,7.1920305E-2,-5.309198E-3,4.2624526E-2],"categories":[],"categories_nodes":[],"categories_segments":[],"categories_sizes":[],"default_left":[0,0,0,0,0],"id":73,"left_children":[1,-1,3,-1,-1],"loss_changes":[4.107026E-2,0E0,2.3988817E-2,0E0,0E0],"parents":[2147483647,0,0,2,2],"right_children":[2,-1,4,-1,-1],"split_conditions":[1.6547648E9,-2.8829396E-2,2.8E1,-5.309198E-3,4.2624526E-2],"split_indices":[0,0,3,0,0],"split_type":[0,0,0,0,0],"sum_hessian":[3.9497676E0,1.5344738E0,2.415294E0,1.3889468E0,1.0263472E0],"tree_param":{"num_deleted":"0","num_feature":"14","num_nodes":"5","size_leaf_vector":"1"}},{"base_weights":[2.0495323E-3,7.855846E-2,-2.7142229E-2,5.2142132E-2,-1.8680235E-2],"categories":[],"categories_nodes":[],"categories_segments":[],"categories_sizes":[],"default_left":[0,0,0,0,0],"id":74,"left_children":[1,3,-1,-1,-1],"loss_changes":[4.2038277E-2,5.4231934E-2,0E0,0E0,0E0],"parents":[2147483647,0,0,1,1],"right_children":[2,4,-1,-1,-1],"split_conditions":[3.1E1,4.428E1,-2.7142229E-2,5.2142132E-2,-1.8680235E-2],"split_indices":[3,2,0,0,0],"split_type":[0,0,0,0,0],"sum_hessian":[3.9345028E0,2.2362535E0,1.6982493E0,1.194289E0,1.0419645E0],"tree_param":{"num_deleted":"0","num_feature":"14","num_nodes":"5","size_leaf_vector":"1"}},{"base_weights":[2.8189677E-3,-5.7428617E-2,3.1819213E-2,-4.7309298E-2,2.0202156E-2],"categories":[],"categories_nodes":[],"categories_segments":[],"categories_sizes":[],"default_left":[0,0,0,0,0],"id":75,"left_children":[1,3,-1,-1,-1],"loss_changes":[3.6640555E-2,5.7536166E-2,0E0,0E0,0E0],"parents":[2147483647,0,0,1,1],"right_children":[2,4,-1,-1,-1],"split_conditions":[2.355E1,9.3758E2,3.1819213E-2,-4.7309298E-2,2.0202156E-2],"split_indices":[1,7,0,0,0],"split_type":[0,0,0,0,0],"sum_hessian":[3.911276E0,2.7501934E0,1.1610827E0,1.3784806E0,1.3717129E0],"tree_param":{"num_deleted":"0","num_feature":"14","num_nodes":"5","size_leaf_vector":"1"}},{"base_weights":[2.973218E-3,2.948248E-2,-6.982571E-2,-6.1971556E-2,2.4642536E-2],"categories":[],"categories_nodes":[],"categories_segments":[],"categories_sizes":[],"default_left":[0,0,0,0,0],"id":76,"left_children":[1,-1,3,-1,-1],"loss_changes":[4.0810544E-2,0E0,8.676605E-2,0E0,0E0],"parents":[2147483647,0,0,2,2],"right_children":[2,-1,4,-1,-1],"split_conditions":[9.36668E2,2.948248E-2,9.38675E2,-6.1971556E-2,2.4642536E-2],"split_indices":[7,0,7,0,0],"split_type":[0,0,0,0,0],"sum_hessian":[3.8932114E0,1.5344713E0,2.35874E0,1.0524181E0,1.306322E0],"tree_param":{"num_deleted":"0","num_feature":"14","num_nodes":"5","size_leaf_vector":"1"}},{"base_weights":[3.1498517E-4,-8.125402E-2,2.7329376E-2,-4.842576E-2,1.0445613E-2],"categories":[],"categories_nodes":[],"categories_segments":[],"categories_sizes":[],"default_left":[0,0,0,0,0],"id":77,"left_children":[1,3,-1,-1,-1],"loss_changes":[4.332296E-2,3.4313694E-2,0E0,0E0,0E0],"parents":[2147483647,0,0,1,1],"right_children":[2,4,-1,-1,-1],"split_conditions":[4.51E2,4.752E1,2.7329376E-2,-4.842576E-2,1.0445613E-2],"split_indices":[4,2,0,0,0],"split_type":[0,0,0,0,0],"sum_hessian":[3.8508484E0,2.0836449E0,1.7672037E0,1.0013757E0,1.0822692E0],"tree_param":{"num_deleted":"0","num_feature":"14","num_nodes":"5","size_leaf_vector":"1"}},{"base_weights":[-2.0977568E-3,7.0372455E-2,-2.6665216E-2,4.8332773E-2,-1.8371424E-2],"categories":[],"categories_nodes":[],"categories_segments":[],"categories_sizes":[],"default_left":[0,0,0,0,0],"id":78,"left_children":[1,3,-1,-1,-1],"loss_changes":[3.6653128E-2,4.7984183E-2,0E0,0E0,0E0],"parents":[2147483647,0,0,1,1],"right_children":[2,4,-1,-1,-1],"split_conditions":[3.1E1,4.428E1,-2.6665216E-2,4.8332773E-2,-1.8371424E-2],"split_indices":[3,2,0,0,0],"split_type":[0,0,0,0,0],"sum_hessian":[3.8332171E0,2.191964E0,1.6412531E0,1.164785E0,1.027179E0],"tree_param":{"num_deleted":"0","num_feature":"14","num_nodes":"5","size_leaf_vector":"1"}},{"base_weights":[-6.5995305E-4,-5.6679312E-2,2.9654663E-2,-4.3533113E-2,1.5796628E-2],"categories":[],"categories_nodes":[],"categories_segments":[],"categories_sizes":[],"default_left":[0,0,0,0,0],"id":79,"left_children":[1,3,-1,-1,-1],"loss_changes":[3.243267E-2,4.355983E-2,0E0,0E0,0E0],"parents":[2147483647,0,0,1,1],"right_children":[2,4,-1,-1,-1],"split_conditions":[2.355E1,5.024E1,2.9654663E-2,-4.3533113E-2,1.5796628E-2],"split_indices":[1,2,0,0,0],"split_type":[0,0,0,0,0],"sum_hessian":[3.8130536E0,2.715019E0,1.0980345E0,1.3200982E0,1.394921E0],"tree_param":{"num_deleted":"0","num_feature":"14","num_nodes":"5","size_leaf_vector":"1"}},{"base_weights":[-1.5407757E-4,-2.6252516E-2,6.6114984E-2,3.8481306E-2,-8.907528E-3],"categories":[],"categories_nodes":[],"categories_segments":[],"categories_sizes":[],"default_left":[0,0,0,0,0],"id":80,"left_children":[1,-1,3,-1,-1],"loss_changes":[3.3543598E-2,0E0,2.3437472E-2,0E0,0E0],"parents":[2147483647,0,0,2,2],"right_children":[2,-1,4,-1,-1],"split_conditions":[1.6547648E9,-2.6252516E-2,4.52E-1,3.8481306E-2,-8.907528E-3],"split_indices":[0,0,12,0,0],"split_type":[0,0,0,0,0],"sum_hessian":[3.7950466E0,1.498827E0,2.2962196E0,1.1871723E0,1.1090473E0],"tree_param":{"num_deleted":"0","num_feature":"14","num_nodes":"5","size_leaf_vector":"1"}},{"base_weights":[6.797748E-4,-2.6799439E-2,6.0899273E-2,-2.2785442E-2,4.7430497E-2],"categories":[],"categories_nodes":[],"categories_segments":[],"categories_sizes":[],"default_left":[0,0,0,0,0],"id":81,"left_children":[1,-1,3,-1,-1],"loss_changes":[3.1363007E-2,0E0,5.803415E-2,0E0,0E0],"parents":[2147483647,0,0,2,2],"right_children":[2,-1,4,-1,-1],"split_conditions":[1.2876E4,-2.6799439E-2,1.255E1,-2.2785442E-2,4.7430497E-2],"split_indices":[5,0,10,0,0],"split_type":[0,0,0,0,0],"sum_hessian":[3.7824214E0,1.3223896E0,2.4600317E0,1.1124476E0,1.3475841E0],"tree_param":{"num_deleted":"0","num_feature":"14","num_nodes":"5","size_leaf_vector":"1"}},{"base_weights":[8.924664E-5,-2.4563188E-2,2.4430873E-2],"categories":[],"categories_nodes":[],"categories_segments":[],"categories_sizes":[],"default_left":[0,0,0],"id":82,"left_children":[1,-1,-1],"loss_changes":[3.835076E-2,0E0,0E0],"parents":[2147483647,0,0],"right_children":[2,-1,-1],"split_conditions":[9.3758E2,-2.4563188E-2,2.4430873E-2],"split_indices":[7,0,0],"split_type":[0,0,0],"sum_hessian":[3.7516882E0,1.8654808E0,1.8862073E0],